SVM-light Version V6.01
1 # kernel type
1 # kernel parameter -d 
1 # kernel parameter -g 
1 # kernel parameter -s 
1 # kernel parameter -r 
empty# kernel parameter -u 
10586000 # highest feature index 
1104 # number of training documents 
906 # number of support vectors plus 1 
-0.58831806 # threshold b, each following line is a SV (starting with alpha*y)
-0.10898339483623334378314950754429 17:1 50000:1 60001:1 60002:1 60003:1 60004:1 60005:1 60006:1 10001210:1 10012100:1 10121000:1 #
-0.10898339483623334378314950754429 113:1 50000:1 60001:1 60003:1 60004:1 60005:1 10003600:1 10036000:1 10360000:1 #
-0.10898339483623334378314950754429 119:1 50000:1 60001:1 60003:1 60004:1 60005:1 60007:1 10003780:1 10037800:1 10378000:1 #
-0.10898339483623334378314950754429 129:1 50000:1 60001:1 60003:1 60004:1 60005:1 60009:1 10003061:1 10030610:1 10306100:1 #
-0.10898339483623334378314950754429 132:1 50000:1 60001:1 60003:1 60005:1 60007:1 60008:1 10003780:1 10037800:1 10378000:1 #
0.10898339483623334378314950754429 41:1 50000:1 60001:1 60002:1 60003:1 60004:1 60005:1 10001551:1 10015510:1 10155100:1 #
0.049331725204695177355862512058593 2346:1 50000:1 60001:1 60003:1 60005:1 60007:1 10003020:1 10030200:1 10302000:1 #
0.1030238030010653255130748107149 83:1 50000:1 60001:1 60003:1 60005:1 10003790:1 10037900:1 10379000:1 #
0.082252284487405721846720041412482 87:1 50000:1 60001:1 60003:1 60005:1 10003852:1 10038520:1 10385200:1 #
0.10898339483623334378314950754429 91:1 50000:1 60001:1 60003:1 60005:1 10003750:1 10037500:1 10375000:1 #
-0.10898339483623334378314950754429 440:1 50000:1 60001:1 60003:1 60005:1 10003852:1 10038520:1 10385200:1 #
-0.10898339483623334378314950754429 11239:1 50000:1 60001:1 60003:1 60005:1 10003750:1 10037500:1 10375000:1 #
-0.10898339483623334378314950754429 157:1 50000:1 60001:1 60003:1 60005:1 10003065:1 10030650:1 10306500:1 #
0.10898339483623334378314950754429 378:1 50000:1 60001:1 60002:1 60003:1 60004:1 60005:1 10003780:1 10037800:1 10378000:1 #
0.10898339483623334378314950754429 6076:1 50000:1 60001:1 60003:1 60004:1 60005:1 10003780:1 10037800:1 10378000:1 #
0.10898339483623334378314950754429 11475:1 50000:1 60001:1 60002:1 60003:1 60004:1 60005:1 60007:1 10003061:1 10030610:1 10306100:1 #
-0.10898339483623334378314950754429 1285:1 50000:1 60001:1 60002:1 60003:1 60004:1 60005:1 10003540:1 10035400:1 10354000:1 #
-0.06210811616142715430033405255017 1598:1 50000:1 60001:1 60002:1 60003:1 60004:1 60005:1 60010:1 10001504:1 10015040:1 10150400:1 #
-0.027321412258679081408452304913226 6990:1 50000:1 60001:1 60003:1 60004:1 60005:1 60006:1 60009:1 10003140:1 10031400:1 10314000:1 #
0.10898339483623334378314950754429 303:1 50000:1 60001:1 60003:1 60005:1 10003600:1 10036000:1 10360000:1 #
0.10294878331096660173393786408269 9901:1 50000:1 60001:1 60003:1 60005:1 10001210:1 10012100:1 10121000:1 #
0.10898339483623334378314950754429 2496:1 50000:1 60001:1 60003:1 60004:1 60005:1 60006:1 60009:1 10003450:1 10034500:1 10345000:1 #
-0.10898339483623334378314950754429 1770:1 50000:1 60001:1 60003:1 60005:1 10003450:1 10034500:1 10345000:1 #
-0.10898339483623334378314950754429 8508:1 50000:1 60001:1 60003:1 60005:1 10003450:1 10034500:1 10345000:1 #
-0.10898339483623334378314950754429 13055:1 50000:1 60001:1 60003:1 60005:1 60006:1 60007:1 10003450:1 10034500:1 10345000:1 #
0.10898339483623334378314950754429 866:1 50000:1 60001:1 60002:1 60003:1 60004:1 60005:1 60006:1 10003540:1 10035400:1 10354000:1 #
0.04954001918415919941685032767964 1498:1 50000:1 60001:1 60002:1 60003:1 60004:1 60005:1 10001504:1 10015040:1 10150400:1 #
0.10898339483623334378314950754429 4911:1 50000:1 60001:1 60002:1 60003:1 60004:1 60005:1 60010:1 10001210:1 10012100:1 10121000:1 #
-0.10898339483623334378314950754429 865:1 50000:1 60001:1 60002:1 60003:1 60004:1 60005:1 60006:1 10003630:1 10036300:1 10363000:1 #
-0.10898339483623334378314950754429 1018:1 50000:1 60001:1 60002:1 60003:1 60004:1 60005:1 60006:1 10003360:1 10033600:1 10336000:1 #
-0.10898339483623334378314950754429 1633:1 50000:1 60001:1 60002:1 60003:1 60004:1 60005:1 60006:1 10005830:1 10058300:1 10583000:1 #
0.10898339483623334378314950754429 11942:1 50000:1 60001:1 60003:1 60005:1 60006:1 10003450:1 10034500:1 10345000:1 #
0.10898339483623334378314950754429 13034:1 50000:1 60001:1 60003:1 60004:1 60005:1 60006:1 60007:1 10003450:1 10034500:1 10345000:1 #
0.052089834922951314122308019705088 2641:1 50000:1 60001:1 60003:1 60005:1 10003450:1 10034500:1 10345000:1 #
-0.092741607788517796406857485180808 8926:1 50000:1 60001:1 60003:1 60005:1 60007:1 60010:1 10003450:1 10034500:1 10345000:1 #
-0.10898339483623334378314950754429 7524:1 50000:1 60001:1 60002:1 60003:1 60004:1 60005:1 10003450:1 10034500:1 10345000:1 #
-0.10898339483623334378314950754429 1241:1 50000:1 60001:1 60002:1 60003:1 60004:1 60005:1 60007:1 60008:1 10003450:1 10034500:1 10345000:1 #
0.10898339483623334378314950754429 1508:1 50000:1 60001:1 60002:1 60003:1 60004:1 60005:1 60006:1 60007:1 10003630:1 10036300:1 10363000:1 #
0.10898339483623334378314950754429 2422:1 50000:1 60001:1 60002:1 60003:1 60004:1 60005:1 60006:1 60007:1 10003630:1 10036300:1 10363000:1 #
0.10898339483623334378314950754429 2426:1 50000:1 60001:1 60003:1 60004:1 60005:1 60006:1 60007:1 10003630:1 10036300:1 10363000:1 #
-0.10898339483623334378314950754429 2463:1 50000:1 60001:1 60003:1 60004:1 60005:1 60006:1 60007:1 10003630:1 10036300:1 10363000:1 #
-0.10898339483623334378314950754429 2284:1 50000:1 60001:1 60003:1 60004:1 60005:1 60006:1 60009:1 10003630:1 10036300:1 10363000:1 #
-0.10898339483623334378314950754429 2298:1 50000:1 60001:1 60003:1 60004:1 60005:1 60006:1 60009:1 10003630:1 10036300:1 10363000:1 #
0.091625189215863392377947604927613 4678:1 50000:1 60001:1 60003:1 60004:1 60005:1 10003450:1 10034500:1 10345000:1 #
0.091625189215864280556367305052845 10730:1 50000:1 60001:1 60003:1 60004:1 60005:1 10003450:1 10034500:1 10345000:1 #
0.091545708276678336434706295676733 11608:1 50000:1 60001:1 60003:1 60004:1 60005:1 10003450:1 10034500:1 10345000:1 #
-0.10898339483623334378314950754429 252:1 50000:1 60001:1 60003:1 60005:1 60007:1 10003066:1 10030660:1 10306600:1 #
-0.10898339483623334378314950754429 495:1 50000:1 60001:1 60003:1 60005:1 60007:1 10003331:1 10033310:1 10333100:1 #
-0.10898339483623334378314950754429 504:1 50000:1 60001:1 60003:1 60005:1 10001510:1 10015100:1 10151000:1 #
0.10898339483623334378314950754429 2282:1 50000:1 60001:1 60003:1 60005:1 60006:1 60007:1 60008:1 10003630:1 10036300:1 10363000:1 #
0.10898339483623334378314950754429 2792:1 50000:1 60001:1 60003:1 60005:1 60007:1 60010:1 10003630:1 10036300:1 10363000:1 #
0.10898339483623334378314950754429 2108:1 50000:1 60001:1 60002:1 60003:1 60004:1 60005:1 60006:1 60007:1 60008:1 60009:1 10003050:1 10030500:1 10305000:1 #
-0.10898339483623334378314950754429 1634:1 50000:1 60001:1 60003:1 60005:1 60006:1 60007:1 60008:1 10003630:1 10036300:1 10363000:1 #
-0.10898339483623334378314950754429 1659:1 50000:1 60001:1 60002:1 60003:1 60004:1 60005:1 60006:1 10003630:1 10036300:1 10363000:1 #
-0.10898339483623334378314950754429 1845:1 50000:1 60001:1 60002:1 60003:1 60004:1 60005:1 60006:1 10003630:1 10036300:1 10363000:1 #
0.073842623463006601403080253476219 900:1 50000:1 60001:1 60003:1 60005:1 10003360:1 10033600:1 10336000:1 #
0.073842623463005935269265478382295 1006:1 50000:1 60001:1 60003:1 60005:1 10003360:1 10033600:1 10336000:1 #
0.073842623463006407114050944073824 1035:1 50000:1 60001:1 60003:1 60005:1 10003360:1 10033600:1 10336000:1 #
-0.10898339483623334378314950754429 11249:1 50000:1 60001:1 60003:1 60005:1 10003360:1 10033600:1 10336000:1 #
0.10898339483623334378314950754429 4159:1 50000:1 60001:1 60002:1 60003:1 60004:1 60005:1 60007:1 10003630:1 10036300:1 10363000:1 #
-0.10898339483623334378314950754429 7474:1 50000:1 60001:1 60003:1 60004:1 60005:1 10003050:1 10030500:1 10305000:1 #
-0.10898339483623334378314950754429 7451:1 50000:1 60001:1 60003:1 60005:1 10003050:1 10030500:1 10305000:1 #
0.10898339483623334378314950754429 2483:1 50000:1 60001:1 60002:1 60003:1 60004:1 60005:1 10003630:1 10036300:1 10363000:1 #
0.10898339483623334378314950754429 11493:1 50000:1 60001:1 60002:1 60003:1 60004:1 60005:1 10003630:1 10036300:1 10363000:1 #
-0.10898339483623334378314950754429 1503:1 50000:1 60001:1 60003:1 60004:1 60005:1 60007:1 60008:1 10001503:1 10015030:1 10150300:1 #
-0.10898339483623334378314950754429 2618:1 50000:1 60001:1 60003:1 60004:1 60005:1 60007:1 10001507:1 10015070:1 10150700:1 #
-0.10898339483623334378314950754429 7583:1 50000:1 60001:1 60003:1 60004:1 60005:1 60007:1 60008:1 10005850:1 10058500:1 10585000:1 #
0.10898339483623334378314950754429 2392:1 50000:1 60001:1 60003:1 60005:1 60006:1 60007:1 10003630:1 10036300:1 10363000:1 #
0.10898339483623334378314950754429 2491:1 50000:1 60001:1 60003:1 60005:1 60006:1 60007:1 10003630:1 10036300:1 10363000:1 #
0.056743682286220432919865430676509 1138:1 50000:1 60001:1 60003:1 60005:1 10005830:1 10058300:1 10583000:1 #
-0.10898339483623334378314950754429 1758:1 50000:1 60001:1 60003:1 60005:1 10003630:1 10036300:1 10363000:1 #
0.10898339483623334378314950754429 5878:1 50000:1 60001:1 60003:1 60004:1 60005:1 10001510:1 10015100:1 10151000:1 #
-0.10898339483623334378314950754429 1555:1 50000:1 60001:1 60003:1 60005:1 10003630:1 10036300:1 10363000:1 #
-0.10898339483623334378314950754429 1726:1 50000:1 60001:1 60003:1 60005:1 10003630:1 10036300:1 10363000:1 #
0.068967639118535761788564286689507 7548:1 50000:1 60001:1 60003:1 60004:1 60005:1 10003050:1 10030500:1 10305000:1 #
0.10898339483623334378314950754429 8466:1 50000:1 60001:1 60003:1 60004:1 60005:1 10003331:1 10033310:1 10333100:1 #
-0.10898339483623334378314950754429 3875:1 50000:1 60001:1 60002:1 60003:1 60004:1 60005:1 60006:1 10003630:1 10036300:1 10363000:1 #
-0.10898339483623334378314950754429 11312:1 50000:1 60001:1 60002:1 60003:1 60004:1 60005:1 60006:1 10003630:1 10036300:1 10363000:1 #
-0.10898339483623334378314950754429 11543:1 50000:1 60001:1 60002:1 60003:1 60004:1 60005:1 60006:1 10003630:1 10036300:1 10363000:1 #
0.084410826137500505339517076208722 1595:1 50000:1 60001:1 60003:1 60005:1 10001503:1 10015030:1 10150300:1 #
0.084286826716145915594502469048166 2728:1 50000:1 60001:1 60003:1 60005:1 10001503:1 10015030:1 10150300:1 #
0.10898339483623334378314950754429 951:1 50000:1 60001:1 60003:1 60005:1 10005850:1 10058500:1 10585000:1 #
-0.10898339483623334378314950754429 586:1 50000:1 60001:1 60003:1 60005:1 10005750:1 10057500:1 10575000:1 #
0.043410056167108607150240118244255 871:1 50000:1 60001:1 60003:1 60004:1 60005:1 60007:1 60008:1 10003630:1 10036300:1 10363000:1 #
-0.10898339483623334378314950754429 533:1 50000:1 60001:1 60003:1 60005:1 60007:1 10001560:1 10015600:1 10156000:1 #
-0.10898339483623334378314950754429 542:1 50000:1 60001:1 60003:1 60005:1 10003045:1 10030450:1 10304500:1 #
0.10898339483623334378314950754429 863:1 50000:1 60001:1 60003:1 60004:1 60005:1 10003630:1 10036300:1 10363000:1 #
0.0046180562849676620382211034154807 1121:1 50000:1 60001:1 60003:1 60005:1 60007:1 60008:1 10003630:1 10036300:1 10363000:1 #
-0.10898339483623334378314950754429 648:1 50000:1 60001:1 60003:1 60005:1 60007:1 10003043:1 10030430:1 10304300:1 #
-0.10898339483623334378314950754429 858:1 50000:1 60001:1 60003:1 60005:1 60007:1 10001240:1 10012400:1 10124000:1 #
-0.10898339483623334378314950754429 1601:1 50000:1 60001:1 60003:1 60005:1 60007:1 10003045:1 10030450:1 10304500:1 #
0.10898339483623334378314950754429 1776:1 50000:1 60001:1 60003:1 60004:1 60005:1 10003630:1 10036300:1 10363000:1 #
0.10898339483623334378314950754429 2660:1 50000:1 60001:1 60003:1 60004:1 60005:1 10003630:1 10036300:1 10363000:1 #
0.10898339483623334378314950754429 2790:1 50000:1 60001:1 60003:1 60004:1 60005:1 10003630:1 10036300:1 10363000:1 #
0.0020910108040913285946948985127847 7757:1 50000:1 60001:1 60003:1 60005:1 10003520:1 10035200:1 10352000:1 #
0.10898339483623334378314950754429 10060:1 50000:1 60001:1 60003:1 60005:1 60007:1 10003066:1 10030660:1 10306600:1 #
-0.10898339483623334378314950754429 2303:1 50000:1 60001:1 60003:1 60004:1 60005:1 60006:1 10003630:1 10036300:1 10363000:1 #
-0.10898339483623334378314950754429 2363:1 50000:1 60001:1 60003:1 60004:1 60005:1 60006:1 10003630:1 10036300:1 10363000:1 #
0.10898339483623334378314950754429 12644:1 50000:1 60001:1 60003:1 60005:1 60006:1 60007:1 60008:1 10003065:1 10030650:1 10306500:1 #
0.10898339483623334378314950754429 1661:1 50000:1 60001:1 60003:1 60005:1 60006:1 60007:1 60008:1 10001504:1 10015040:1 10150400:1 #
-0.10898339483623334378314950754429 11418:1 50000:1 60001:1 60003:1 60005:1 10003630:1 10036300:1 10363000:1 #
-0.10898339483623334378314950754429 4220:1 50000:1 60001:1 60003:1 60005:1 60007:1 10003630:1 10036300:1 10363000:1 #
-0.10898339483623334378314950754429 11553:1 50000:1 60001:1 60003:1 60004:1 60005:1 60006:1 10003630:1 10036300:1 10363000:1 #
0.10898339483623334378314950754429 1950:1 50000:1 60001:1 60003:1 60005:1 60006:1 60007:1 60008:1 10003730:1 10037300:1 10373000:1 #
0.10898339483623334378314950754429 3113:1 50000:1 60001:1 60003:1 60005:1 60006:1 60007:1 60008:1 10003670:1 10036700:1 10367000:1 #
0.10898339483623334378314950754429 3343:1 50000:1 60001:1 60003:1 60005:1 60006:1 60007:1 60008:1 10003140:1 10031400:1 10314000:1 #
-0.10898339483623334378314950754429 3534:1 50000:1 60001:1 60003:1 60005:1 60007:1 60008:1 10003670:1 10036700:1 10367000:1 #
-0.10898339483623334378314950754429 11203:1 50000:1 60001:1 60003:1 60005:1 60007:1 60008:1 10003140:1 10031400:1 10314000:1 #
-0.10898339483623334378314950754429 2554:1 50000:1 60001:1 60003:1 60005:1 60006:1 60007:1 60008:1 10003730:1 10037300:1 10373000:1 #
0.10898339483623334378314950754429 4157:1 50000:1 60001:1 60003:1 60004:1 60005:1 10003630:1 10036300:1 10363000:1 #
0.10898339483623334378314950754429 11273:1 50000:1 60001:1 60003:1 60004:1 60005:1 10003630:1 10036300:1 10363000:1 #
0.10898339483623334378314950754429 11444:1 50000:1 60001:1 60003:1 60004:1 60005:1 10003630:1 10036300:1 10363000:1 #
-0.10898339483623334378314950754429 6205:1 50000:1 60001:1 60003:1 60004:1 60005:1 60006:1 60007:1 60008:1 10003065:1 10030650:1 10306500:1 #
-0.047247077314393301494810373242217 12913:1 50000:1 60001:1 60003:1 60004:1 60005:1 60010:1 10003065:1 10030650:1 10306500:1 #
0.10898339483623334378314950754429 5439:1 50000:1 60001:1 60003:1 60005:1 10001560:1 10015600:1 10156000:1 #
0.10688197801713014700730752792879 11439:1 50000:1 60001:1 60003:1 60005:1 10003440:1 10034400:1 10344000:1 #
0.10898339483623334378314950754429 5480:1 50000:1 60001:1 60003:1 60005:1 60010:1 10003670:1 10036700:1 10367000:1 #
-0.10898339483623334378314950754429 765:1 50000:1 60001:1 60003:1 60004:1 60005:1 10003331:1 10033310:1 10333100:1 #
-0.10898339483623334378314950754429 183:1 50000:1 60001:1 60003:1 60004:1 60005:1 10003066:1 10030660:1 10306600:1 #
-0.10898339483623334378314950754429 363:1 50000:1 60001:1 60003:1 60004:1 60005:1 10003064:1 10030640:1 10306400:1 #
0.10898339483623334378314950754429 12279:1 50000:1 60001:1 60002:1 60003:1 60004:1 60005:1 60006:1 10003065:1 10030650:1 10306500:1 #
0.10898339483623334378314950754429 12918:1 50000:1 60001:1 60003:1 60005:1 60006:1 60007:1 10003065:1 10030650:1 10306500:1 #
0.10898339483623334378314950754429 12714:1 50000:1 60001:1 60003:1 60005:1 60006:1 10003065:1 10030650:1 10306500:1 #
-0.10898339483623334378314950754429 12623:1 50000:1 60001:1 60003:1 60005:1 10003065:1 10030650:1 10306500:1 #
0.10898339483623334378314950754429 6408:1 50000:1 60001:1 60003:1 60004:1 60005:1 60009:1 10003064:1 10030640:1 10306400:1 #
-0.10898339483623334378314950754429 6226:1 50000:1 60001:1 60003:1 60005:1 10003065:1 10030650:1 10306500:1 #
-0.10898339483623334378314950754429 11211:1 50000:1 60001:1 60003:1 60005:1 10003065:1 10030650:1 10306500:1 #
0.10898339483623334378314950754429 1561:1 50000:1 60001:1 60002:1 60003:1 60004:1 60005:1 10001507:1 10015070:1 10150700:1 #
0.10898339483623334378314950754429 6671:1 50000:1 60001:1 60002:1 60003:1 60004:1 60005:1 60010:1 10001521:1 10015210:1 10152100:1 #
-0.10898339483623334378314950754429 12967:1 50000:1 60001:1 60003:1 60004:1 60005:1 60006:1 10003670:1 10036700:1 10367000:1 #
-0.10898339483623334378314950754429 13082:1 50000:1 60001:1 60003:1 60004:1 60005:1 60006:1 10003670:1 10036700:1 10367000:1 #
-0.10898339483623334378314950754429 3513:1 50000:1 60001:1 60003:1 60005:1 60007:1 60008:1 10003540:1 10035400:1 10354000:1 #
0.10898339483623334378314950754429 9701:1 50000:1 60001:1 60002:1 60003:1 60004:1 60005:1 60010:1 10003771:1 10037710:1 10377100:1 #
0.10898339483623334378314950754429 10684:1 50000:1 60001:1 60002:1 60003:1 60004:1 60005:1 60010:1 10001131:1 10011310:1 10113100:1 #
0.10898339483623334378314950754429 10720:1 50000:1 60001:1 60002:1 60003:1 60004:1 60005:1 60010:1 10005820:1 10058200:1 10582000:1 #
-0.10898339483623334378314950754429 2326:1 50000:1 60001:1 60002:1 60003:1 60004:1 60005:1 10001521:1 10015210:1 10152100:1 #
-0.10898339483623334378314950754429 10895:1 50000:1 60001:1 60002:1 60003:1 60004:1 60005:1 10001131:1 10011310:1 10113100:1 #
-0.10898339483623334378314950754429 10920:1 50000:1 60001:1 60002:1 60003:1 60004:1 60005:1 10001131:1 10011310:1 10113100:1 #
0.10898339483623334378314950754429 5556:1 50000:1 60001:1 60003:1 60005:1 60006:1 10003670:1 10036700:1 10367000:1 #
-0.071761295652243956011417935769714 13511:1 50000:1 60001:1 60003:1 60005:1 10001970:1 10019700:1 10197000:1 #
0.062412195255809176097638868441209 11484:1 50000:1 60001:1 60003:1 60005:1 60007:1 10003320:1 10033200:1 10332000:1 #
-0.015040938375186526168580947171449 2620:1 50000:1 60001:1 60003:1 60005:1 60007:1 60010:1 10003771:1 10037710:1 10377100:1 #
0.10898339483623334378314950754429 7651:1 50000:1 60001:1 60003:1 60004:1 60005:1 10001240:1 10012400:1 10124000:1 #
-0.036248787887928589357411368609974 486:1 50000:1 60001:1 60003:1 60005:1 60010:1 10005820:1 10058200:1 10582000:1 #
0.041104598265973006643303477858353 10696:1 50000:1 60001:1 60003:1 60004:1 60005:1 10003520:1 10035200:1 10352000:1 #
0.099689205814458045629145033217355 602:1 50000:1 60001:1 60003:1 60005:1 10001131:1 10011310:1 10113100:1 #
0.099689205814458489718354883279972 2233:1 50000:1 60001:1 60003:1 60005:1 10001131:1 10011310:1 10113100:1 #
-0.036248787887928624051880888146115 7064:1 50000:1 60001:1 60003:1 60005:1 60010:1 10005820:1 10058200:1 10582000:1 #
-0.086077145218895909084544371125958 360:1 50000:1 60001:1 60003:1 60005:1 60010:1 10003065:1 10030650:1 10306500:1 #
-0.086077145218896894407478725952387 3031:1 50000:1 60001:1 60003:1 60005:1 60010:1 10003065:1 10030650:1 10306500:1 #
0.065856670710693621106912587492843 10767:1 50000:1 60001:1 60003:1 60005:1 60007:1 10001131:1 10011310:1 10113100:1 #
0.099628435789616484608011148793594 10660:1 50000:1 60001:1 60003:1 60005:1 10001131:1 10011310:1 10113100:1 #
0.099689205814458545229506114537799 11188:1 50000:1 60001:1 60003:1 60005:1 10001131:1 10011310:1 10113100:1 #
-0.10898339483623334378314950754429 10984:1 50000:1 60001:1 60003:1 60005:1 10001131:1 10011310:1 10113100:1 #
0.10898339483623334378314950754429 3391:1 50000:1 60001:1 60003:1 60004:1 60005:1 60010:1 10001553:1 10015530:1 10155300:1 #
-0.10898339483623334378314950754429 10633:1 50000:1 60001:1 60003:1 60004:1 60005:1 10001131:1 10011310:1 10113100:1 #
-0.10898339483623334378314950754429 10854:1 50000:1 60001:1 60003:1 60005:1 10001131:1 10011310:1 10113100:1 #
0.10898339483623334378314950754429 7970:1 50000:1 60001:1 60003:1 60005:1 60010:1 10003570:1 10035700:1 10357000:1 #
0.10898339483623334378314950754429 10787:1 50000:1 60001:1 60003:1 60005:1 60010:1 10001522:1 10015220:1 10152200:1 #
-0.012090232085370350781361459269192 10260:1 50000:1 60001:1 60003:1 60005:1 60010:1 10001131:1 10011310:1 10113100:1 #
-0.012106078353736723224320925851316 11644:1 50000:1 60001:1 60003:1 60005:1 60010:1 10001131:1 10011310:1 10113100:1 #
-0.10898339483623334378314950754429 2115:1 50000:1 60001:1 60002:1 60003:1 60004:1 60005:1 60007:1 60008:1 10003530:1 10035300:1 10353000:1 #
0.025450343543266341905795258071521 323:1 50000:1 60001:1 60003:1 60005:1 10003065:1 10030650:1 10306500:1 #
0.025450343543265519646867645064958 373:1 50000:1 60001:1 60003:1 60005:1 10003065:1 10030650:1 10306500:1 #
0.025350795512319227592579196084444 686:1 50000:1 60001:1 60003:1 60005:1 10003065:1 10030650:1 10306500:1 #
-0.086077145218895464995334521063342 9507:1 50000:1 60001:1 60003:1 60005:1 60010:1 10003065:1 10030650:1 10306500:1 #
-0.086010719983249300790717484233028 11074:1 50000:1 60001:1 60003:1 60005:1 60010:1 10003065:1 10030650:1 10306500:1 #
-0.086010719983247677089543969941587 11080:1 50000:1 60001:1 60003:1 60005:1 60010:1 10003065:1 10030650:1 10306500:1 #
0.10898339483623334378314950754429 4663:1 50000:1 60001:1 60003:1 60004:1 60005:1 60006:1 60007:1 60008:1 10003530:1 10035300:1 10353000:1 #
0.099689205814460044030589358499128 12272:1 50000:1 60001:1 60003:1 60005:1 10001131:1 10011310:1 10113100:1 #
0.10898339483623334378314950754429 6617:1 50000:1 60001:1 60003:1 60004:1 60005:1 60007:1 60008:1 10003540:1 10035400:1 10354000:1 #
-0.10898339483623334378314950754429 4303:1 50000:1 60001:1 60002:1 60003:1 60004:1 60005:1 60007:1 60008:1 10001120:1 10011200:1 10112000:1 #
-0.10898339483623334378314950754429 10069:1 50000:1 60001:1 60003:1 60004:1 60005:1 60007:1 60008:1 60009:1 10003371:1 10033710:1 10337100:1 #
0.0066229193593065893708171643083915 9299:1 50000:1 60001:1 60003:1 60005:1 10001505:1 10015050:1 10150500:1 #
0.10898339483623334378314950754429 11917:1 50000:1 60001:1 60002:1 60003:1 60004:1 60005:1 60010:1 10003620:1 10036200:1 10362000:1 #
0.025450343543265460666269461853517 2807:1 50000:1 60001:1 60003:1 60005:1 10003065:1 10030650:1 10306500:1 #
0.025450343543265217804982825100524 3013:1 50000:1 60001:1 60003:1 60005:1 10003065:1 10030650:1 10306500:1 #
-0.10898339483623334378314950754429 3304:1 50000:1 60001:1 60003:1 60005:1 10003620:1 10036200:1 10362000:1 #
-0.10898339483623334378314950754429 8841:1 50000:1 60001:1 60003:1 60005:1 10003570:1 10035700:1 10357000:1 #
-0.10898339483623334378314950754429 2630:1 50000:1 60001:1 60003:1 60004:1 60005:1 10003620:1 10036200:1 10362000:1 #
0.10898339483623334378314950754429 10058:1 50000:1 60001:1 60002:1 60003:1 60004:1 60005:1 10003371:1 10033710:1 10337100:1 #
0.10898339483623334378314950754429 2112:1 50000:1 60001:1 60002:1 60003:1 60004:1 60005:1 60006:1 60007:1 60008:1 10003730:1 10037300:1 10373000:1 #
0.10898339483623334378314950754429 2743:1 50000:1 60001:1 60002:1 60003:1 60004:1 60005:1 60006:1 60007:1 60008:1 10001341:1 10013410:1 10134100:1 #
-0.10898339483623334378314950754429 2140:1 50000:1 60001:1 60002:1 60003:1 60004:1 60005:1 60006:1 10001522:1 10015220:1 10152200:1 #
0.0641754618004316823576260730988 4762:1 50000:1 60001:1 60003:1 60005:1 10003620:1 10036200:1 10362000:1 #
-0.10898339483623334378314950754429 3937:1 50000:1 60001:1 60002:1 60003:1 60004:1 60005:1 60006:1 60007:1 10003065:1 10030650:1 10306500:1 #
-0.10898339483623334378314950754429 3342:1 50000:1 60001:1 60002:1 60003:1 60004:1 60005:1 60006:1 60007:1 60008:1 10003750:1 10037500:1 10375000:1 #
0.064175461800432390124804271636094 7673:1 50000:1 60001:1 60003:1 60005:1 10003620:1 10036200:1 10362000:1 #
0.063821358639892133979287791589741 12124:1 50000:1 60001:1 60003:1 60005:1 10003620:1 10036200:1 10362000:1 #
-0.10898339483623334378314950754429 2647:1 50000:1 60001:1 60003:1 60005:1 60006:1 60007:1 10001341:1 10013410:1 10134100:1 #
-0.10898339483623334378314950754429 6692:1 50000:1 60001:1 60003:1 60005:1 10001341:1 10013410:1 10134100:1 #
-0.10898339483623334378314950754429 2677:1 50000:1 60001:1 60003:1 60005:1 60006:1 10001341:1 10013410:1 10134100:1 #
0.075649214524525151825962154816807 4287:1 50000:1 60001:1 60003:1 60005:1 10005820:1 10058200:1 10582000:1 #
0.10898339483623334378314950754429 13299:1 50000:1 60001:1 60003:1 60005:1 60010:1 10001553:1 10015530:1 10155300:1 #
0.10898339483623334378314950754429 6209:1 50000:1 60001:1 60003:1 60004:1 60005:1 60006:1 60009:1 10003084:1 10030840:1 10308400:1 #
-0.10106508346388008712235517805311 4730:1 50000:1 60001:1 60003:1 60005:1 60010:1 10001553:1 10015530:1 10155300:1 #
-0.047625006144922481243764167402333 10451:1 50000:1 60001:1 60003:1 60005:1 60010:1 10003620:1 10036200:1 10362000:1 #
-0.047625006144922550632703206474616 10504:1 50000:1 60001:1 60003:1 60005:1 60010:1 10003620:1 10036200:1 10362000:1 #
0.10660265923094479345589746799305 1298:1 50000:1 60001:1 60003:1 60005:1 10001341:1 10013410:1 10134100:1 #
0.10660265923094362772172161157869 2150:1 50000:1 60001:1 60003:1 60005:1 10001341:1 10013410:1 10134100:1 #
0.10660265923094498774492677739545 2311:1 50000:1 60001:1 60003:1 60005:1 10001341:1 10013410:1 10134100:1 #
-0.10898339483623334378314950754429 836:1 50000:1 60001:1 60003:1 60005:1 10003131:1 10031310:1 10313100:1 #
-0.10898339483623334378314950754429 934:1 50000:1 60001:1 60003:1 60005:1 10003133:1 10031330:1 10313300:1 #
-0.10898339483623334378314950754429 1274:1 50000:1 60001:1 60003:1 60005:1 10002800:1 10028000:1 10280000:1 #
0.10898339483623334378314950754429 4230:1 50000:1 60001:1 60003:1 60004:1 60005:1 60006:1 60007:1 60008:1 10003620:1 10036200:1 10362000:1 #
0.10898339483623334378314950754429 1783:1 50000:1 60001:1 60002:1 60003:1 60004:1 60005:1 60006:1 10001584:1 10015840:1 10158400:1 #
0.10898339483623334378314950754429 11738:1 50000:1 60001:1 60002:1 60003:1 60004:1 60005:1 60006:1 10001505:1 10015050:1 10150500:1 #
-0.10898339483623334378314950754429 2597:1 50000:1 60001:1 60002:1 60003:1 60004:1 60005:1 60006:1 10003620:1 10036200:1 10362000:1 #
-0.10898339483623334378314950754429 11893:1 50000:1 60001:1 60002:1 60003:1 60004:1 60005:1 60006:1 10003620:1 10036200:1 10362000:1 #
-0.10898339483623334378314950754429 2299:1 50000:1 60001:1 60003:1 60005:1 60006:1 60007:1 60008:1 10003084:1 10030840:1 10308400:1 #
0.10898339483623334378314950754429 283:1 50000:1 60001:1 60003:1 60005:1 10003750:1 10037500:1 10375000:1 #
0.10898339483623334378314950754429 3333:1 50000:1 60001:1 60003:1 60005:1 10003750:1 10037500:1 10375000:1 #
0.013123968322406682693315183030336 4822:1 50000:1 60001:1 60003:1 60005:1 10003133:1 10031330:1 10313300:1 #
-0.10898339483623334378314950754429 1812:1 50000:1 60001:1 60003:1 60005:1 10003062:1 10030620:1 10306200:1 #
-0.072558758719752619592568976258917 1833:1 50000:1 60001:1 60003:1 60005:1 10001970:1 10019700:1 10197000:1 #
-0.10898339483623334378314950754429 1957:1 50000:1 60001:1 60003:1 60005:1 10003850:1 10038500:1 10385000:1 #
0.10898339483623334378314950754429 4167:1 50000:1 60001:1 60002:1 60003:1 60004:1 60005:1 60007:1 60008:1 10003620:1 10036200:1 10362000:1 #
0.10898339483623334378314950754429 1187:1 50000:1 60001:1 60003:1 60005:1 60006:1 60007:1 10001531:1 10015310:1 10153100:1 #
0.10898339483623334378314950754429 2062:1 50000:1 60001:1 60003:1 60005:1 60006:1 60007:1 10003850:1 10038500:1 10385000:1 #
-0.10898339483623334378314950754429 4329:1 50000:1 60001:1 60003:1 60005:1 60007:1 60008:1 10001110:1 10011100:1 10111000:1 #
-0.10898339483623334378314950754429 7530:1 50000:1 60001:1 60003:1 60005:1 60007:1 60008:1 10003640:1 10036400:1 10364000:1 #
-0.10898339483623334378314950754429 10076:1 50000:1 60001:1 60003:1 60005:1 60007:1 60008:1 10003801:1 10038010:1 10380100:1 #
0.10898339483623334378314950754429 3567:1 50000:1 60001:1 60003:1 60005:1 10003062:1 10030620:1 10306200:1 #
0.10898339483623334378314950754429 3589:1 50000:1 60001:1 60003:1 60005:1 10003062:1 10030620:1 10306200:1 #
0.10898339483623334378314950754429 3606:1 50000:1 60001:1 60003:1 60005:1 10003062:1 10030620:1 10306200:1 #
-0.10898339483623334378314950754429 1801:1 50000:1 60001:1 60003:1 60004:1 60005:1 10003062:1 10030620:1 10306200:1 #
-0.05799415782971691774028144550357 1782:1 50000:1 60001:1 60002:1 60003:1 60004:1 60005:1 60006:1 10003062:1 10030620:1 10306200:1 #
-0.057991561826765250509119198341068 3444:1 50000:1 60001:1 60002:1 60003:1 60004:1 60005:1 60006:1 10003750:1 10037500:1 10375000:1 #
0.10898339483623334378314950754429 8907:1 50000:1 60001:1 60003:1 60005:1 60007:1 10003640:1 10036400:1 10364000:1 #
0.10898339483623334378314950754429 5954:1 50000:1 60001:1 60003:1 60005:1 60006:1 60007:1 60008:1 10003083:1 10030830:1 10308300:1 #
0.10898339483623334378314950754429 6260:1 50000:1 60001:1 60003:1 60005:1 60006:1 60007:1 60008:1 10001580:1 10015800:1 10158000:1 #
-0.10898339483623334378314950754429 5765:1 50000:1 60001:1 60003:1 60005:1 10003083:1 10030830:1 10308300:1 #
-0.10898339483623334378314950754429 10546:1 50000:1 60001:1 60003:1 60005:1 10003083:1 10030830:1 10308300:1 #
-0.10898339483623334378314950754429 12107:1 50000:1 60001:1 60003:1 60005:1 60007:1 60008:1 10004540:1 10045400:1 10454000:1 #
0.10898339483623334378314950754429 2344:1 50000:1 60001:1 60002:1 60003:1 60004:1 60005:1 10003061:1 10030610:1 10306100:1 #
0.10898339483623334378314950754429 8071:1 50000:1 60001:1 60002:1 60003:1 60004:1 60005:1 10003570:1 10035700:1 10357000:1 #
0.10898339483623334378314950754429 3749:1 50000:1 60001:1 60002:1 60003:1 60004:1 60005:1 10003670:1 10036700:1 10367000:1 #
-0.10898339483623334378314950754429 6587:1 50000:1 60001:1 60002:1 60003:1 60004:1 60005:1 60006:1 60007:1 10003670:1 10036700:1 10367000:1 #
-0.10898339483623334378314950754429 13033:1 50000:1 60001:1 60002:1 60003:1 60004:1 60005:1 60006:1 60007:1 10003670:1 10036700:1 10367000:1 #
-0.10898339483623334378314950754429 13054:1 50000:1 60001:1 60002:1 60003:1 60004:1 60005:1 60006:1 60007:1 10003670:1 10036700:1 10367000:1 #
0.10739564120609050579258081370426 2128:1 50000:1 60001:1 60003:1 60005:1 10003083:1 10030830:1 10308300:1 #
0.10735803465362257769211140612242 8220:1 50000:1 60001:1 60003:1 60005:1 10003083:1 10030830:1 10308300:1 #
0.10662129294151072300689264693574 8277:1 50000:1 60001:1 60003:1 60005:1 10003083:1 10030830:1 10308300:1 #
-0.10898339483623334378314950754429 11739:1 50000:1 60001:1 60003:1 60005:1 60006:1 10003083:1 10030830:1 10308300:1 #
-0.10898339483623334378314950754429 13217:1 50000:1 60001:1 60003:1 60005:1 10003850:1 10038500:1 10385000:1 #
-0.10898339483623334378314950754429 2068:1 50000:1 60001:1 60003:1 60005:1 10003330:1 10033300:1 10333000:1 #
0.10898339483623334378314950754429 4544:1 50000:1 60001:1 60003:1 60004:1 60005:1 60006:1 10003670:1 10036700:1 10367000:1 #
0.10898339483623334378314950754429 10395:1 50000:1 60001:1 60003:1 60005:1 60006:1 60007:1 60008:1 10003531:1 10035310:1 10353100:1 #
0.10898339483623334378314950754429 12281:1 50000:1 60001:1 60003:1 60005:1 60006:1 60007:1 60008:1 10001550:1 10015500:1 10155000:1 #
-0.10898339483623334378314950754429 12244:1 50000:1 60001:1 60003:1 60005:1 10001550:1 10015500:1 10155000:1 #
0.10898339483623334378314950754429 4630:1 50000:1 60001:1 60003:1 60004:1 60005:1 60006:1 10003850:1 10038500:1 10385000:1 #
-0.10898339483623334378314950754429 12086:1 50000:1 60001:1 60003:1 60005:1 10001550:1 10015500:1 10155000:1 #
-0.10898339483623334378314950754429 12213:1 50000:1 60001:1 60003:1 60005:1 10001550:1 10015500:1 10155000:1 #
0.10898339483623334378314950754429 12490:1 50000:1 60001:1 60003:1 60005:1 60006:1 60007:1 10003850:1 10038500:1 10385000:1 #
0.10898339483623334378314950754429 2687:1 50000:1 60001:1 60003:1 60005:1 60006:1 10003850:1 10038500:1 10385000:1 #
-0.10898339483623334378314950754429 6203:1 50000:1 60001:1 60003:1 60004:1 60005:1 60006:1 60009:1 10001580:1 10015800:1 10158000:1 #
-0.10898339483623334378314950754429 12009:1 50000:1 60001:1 60003:1 60004:1 60005:1 60006:1 60007:1 60008:1 10003083:1 10030830:1 10308300:1 #
-0.10898339483623334378314950754429 13094:1 50000:1 60001:1 60003:1 60005:1 60007:1 60008:1 10003540:1 10035400:1 10354000:1 #
0.10898339483623334378314950754429 7361:1 50000:1 60001:1 60003:1 60005:1 10003330:1 10033300:1 10333000:1 #
0.10898339483623334378314950754429 9780:1 50000:1 60001:1 60003:1 60005:1 10003801:1 10038010:1 10380100:1 #
0.10898339483623334378314950754429 10207:1 50000:1 60001:1 60003:1 60005:1 10003330:1 10033300:1 10333000:1 #
-0.10898339483623334378314950754429 11413:1 50000:1 60001:1 60003:1 60005:1 10003330:1 10033300:1 10333000:1 #
-0.10898339483623334378314950754429 12535:1 50000:1 60001:1 60002:1 60003:1 60004:1 60005:1 60006:1 10003850:1 10038500:1 10385000:1 #
-0.10898339483623334378314950754429 7354:1 50000:1 60001:1 60003:1 60005:1 60007:1 10003330:1 10033300:1 10333000:1 #
0.10898339483623334378314950754429 5059:1 50000:1 60001:1 60003:1 60005:1 10001550:1 10015500:1 10155000:1 #
0.10898339483623334378314950754429 8470:1 50000:1 60001:1 60003:1 60005:1 10001550:1 10015500:1 10155000:1 #
0.10898339483623334378314950754429 1612:1 50000:1 60001:1 60002:1 60003:1 60004:1 60005:1 60007:1 10001583:1 10015830:1 10158300:1 #
-0.10898339483623334378314950754429 2320:1 50000:1 60001:1 60003:1 60005:1 10003068:1 10030680:1 10306800:1 #
-0.10898339483623334378314950754429 2516:1 50000:1 60001:1 60003:1 60005:1 10003068:1 10030680:1 10306800:1 #
-0.10898339483623334378314950754429 2533:1 50000:1 60001:1 60003:1 60005:1 10003613:1 10036130:1 10361300:1 #
0.10898339483623334378314950754429 4163:1 50000:1 60001:1 60002:1 60003:1 60004:1 60005:1 60007:1 10003312:1 10033120:1 10331200:1 #
0.10898339483623334378314950754429 12752:1 50000:1 60001:1 60002:1 60003:1 60004:1 60005:1 60007:1 10003831:1 10038310:1 10383100:1 #
0.10898339483623334378314950754429 4299:1 50000:1 60001:1 60002:1 60003:1 60004:1 60005:1 60007:1 60008:1 10003430:1 10034300:1 10343000:1 #
0.058161251858930847202788783079086 13152:1 50000:1 60001:1 60003:1 60005:1 10003860:1 10038600:1 10386000:1 #
-0.10898339483623334378314950754429 3755:1 50000:1 60001:1 60003:1 60004:1 60005:1 10003430:1 10034300:1 10343000:1 #
-0.10898339483623334378314950754429 10391:1 50000:1 60001:1 60003:1 60004:1 60005:1 10003831:1 10038310:1 10383100:1 #
0.055698555865440917134190357273837 1130:1 50000:1 60001:1 60003:1 60005:1 10003670:1 10036700:1 10367000:1 #
0.055698555865440556311707354097962 1132:1 50000:1 60001:1 60003:1 60005:1 10003670:1 10036700:1 10367000:1 #
0.055698555865441951029382039450866 4465:1 50000:1 60001:1 60003:1 60005:1 10003670:1 10036700:1 10367000:1 #
-0.10898339483623334378314950754429 4012:1 50000:1 60001:1 60003:1 60005:1 10003312:1 10033120:1 10331200:1 #
-0.10898339483623334378314950754429 6411:1 50000:1 60001:1 60003:1 60005:1 60007:1 10003064:1 10030640:1 10306400:1 #
-0.10898339483623334378314950754429 10052:1 50000:1 60001:1 60003:1 60005:1 60007:1 10003371:1 10033710:1 10337100:1 #
0.10898339483623334378314950754429 3236:1 50000:1 60001:1 60003:1 60004:1 60005:1 10003430:1 10034300:1 10343000:1 #
0.10898339483623334378314950754429 12962:1 50000:1 60001:1 60002:1 60003:1 60004:1 60005:1 10003613:1 10036130:1 10361300:1 #
0.10898339483623334378314950754429 3876:1 50000:1 60001:1 60003:1 60004:1 60005:1 60006:1 10003200:1 10032000:1 10320000:1 #
-0.10898339483623334378314950754429 12750:1 50000:1 60001:1 60002:1 60003:1 60004:1 60005:1 10005850:1 10058500:1 10585000:1 #
-0.10898339483623334378314950754429 1971:1 50000:1 60001:1 60002:1 60003:1 60004:1 60005:1 10003710:1 10037100:1 10371000:1 #
-0.10898339483623334378314950754429 2077:1 50000:1 60001:1 60002:1 60003:1 60004:1 60005:1 10004630:1 10046300:1 10463000:1 #
0.10898339483623334378314950754429 266:1 50000:1 60001:1 60003:1 60005:1 60007:1 10003064:1 10030640:1 10306400:1 #
0.10898339483623334378314950754429 6188:1 50000:1 60001:1 60003:1 60005:1 60006:1 60007:1 60008:1 10003084:1 10030840:1 10308400:1 #
0.10898339483623334378314950754429 6453:1 50000:1 60001:1 60003:1 60005:1 60006:1 60007:1 60008:1 10003133:1 10031330:1 10313300:1 #
-0.10898339483623334378314950754429 12538:1 50000:1 60001:1 60003:1 60005:1 60006:1 60007:1 60008:1 10003084:1 10030840:1 10308400:1 #
-0.10898339483623334378314950754429 6053:1 50000:1 60001:1 60003:1 60005:1 60007:1 60008:1 10003780:1 10037800:1 10378000:1 #
-0.058262081586472787286812291540627 3940:1 50000:1 60001:1 60003:1 60005:1 60006:1 60007:1 60008:1 10003650:1 10036500:1 10365000:1 #
0.10898339483623334378314950754429 4753:1 50000:1 60001:1 60003:1 60004:1 60005:1 10003710:1 10037100:1 10371000:1 #
0.10898339483623334378314950754429 3935:1 50000:1 60001:1 60002:1 60003:1 60004:1 60005:1 60009:1 10001502:1 10015020:1 10150200:1 #
0.10898339483623334378314950754429 4225:1 50000:1 60001:1 60002:1 60003:1 60004:1 60005:1 60009:1 10003312:1 10033120:1 10331200:1 #
-0.10898339483623334378314950754429 3641:1 50000:1 60001:1 60003:1 60004:1 60005:1 10003133:1 10031330:1 10313300:1 #
-0.10898339483623334378314950754429 4865:1 50000:1 60001:1 60003:1 60004:1 60005:1 60009:1 10001528:1 10015280:1 10152800:1 #
-0.10898339483623334378314950754429 6050:1 50000:1 60001:1 60003:1 60004:1 60005:1 60009:1 10003740:1 10037400:1 10374000:1 #
0.10898339483623334378314950754429 2756:1 50000:1 60001:1 60003:1 60005:1 60006:1 60007:1 10003067:1 10030670:1 10306700:1 #
0.10898339483623334378314950754429 2922:1 50000:1 60001:1 60003:1 60005:1 60006:1 60007:1 10003551:1 10035510:1 10355100:1 #
0.10898339483623334378314950754429 6588:1 50000:1 60001:1 60003:1 60005:1 60006:1 60007:1 10001340:1 10013400:1 10134000:1 #
-0.039606280034462142125573080875256 7930:1 50000:1 60001:1 60003:1 60005:1 60006:1 10003551:1 10035510:1 10355100:1 #
-0.10898339483623334378314950754429 2577:1 50000:1 60001:1 60003:1 60005:1 10003067:1 10030670:1 10306700:1 #
-0.10898339483623334378314950754429 4622:1 50000:1 60001:1 60003:1 60005:1 10003551:1 10035510:1 10355100:1 #
0.10898339483623334378314950754429 13031:1 50000:1 60001:1 60002:1 60003:1 60004:1 60005:1 10001528:1 10015280:1 10152800:1 #
0.10104978811674014682608913062722 5525:1 50000:1 60001:1 60003:1 60004:1 60005:1 60009:1 10001520:1 10015200:1 10152000:1 #
0.10898339483623334378314950754429 116:1 50000:1 60001:1 60003:1 60004:1 60005:1 60009:1 10003065:1 10030650:1 10306500:1 #
-0.10898339483623334378314950754429 5527:1 50000:1 60001:1 60002:1 60003:1 60004:1 60005:1 60007:1 10001524:1 10015240:1 10152400:1 #
-0.10898339483623334378314950754429 8922:1 50000:1 60001:1 60002:1 60003:1 60004:1 60005:1 60007:1 10003642:1 10036420:1 10364200:1 #
0.073494795448627442402411702460086 10322:1 50000:1 60001:1 60003:1 60005:1 10003042:1 10030420:1 10304200:1 #
0.10898339483623334378314950754429 4090:1 50000:1 60001:1 60003:1 60005:1 60007:1 60008:1 10003551:1 10035510:1 10355100:1 #
0.10898339483623334378314950754429 5546:1 50000:1 60001:1 60003:1 60005:1 10003551:1 10035510:1 10355100:1 #
0.10898339483623334378314950754429 8566:1 50000:1 60001:1 60003:1 60005:1 10003551:1 10035510:1 10355100:1 #
-0.10898339483623334378314950754429 8806:1 50000:1 60001:1 60003:1 60005:1 10003551:1 10035510:1 10355100:1 #
0.10898339483623334378314950754429 7424:1 50000:1 60001:1 60002:1 60003:1 60004:1 60005:1 60007:1 60008:1 10003600:1 10036000:1 10360000:1 #
-0.10898339483623334378314950754429 4639:1 50000:1 60001:1 60003:1 60005:1 10003551:1 10035510:1 10355100:1 #
-0.10898339483623334378314950754429 6994:1 50000:1 60001:1 60003:1 60005:1 10003551:1 10035510:1 10355100:1 #
0.10898339483623334378314950754429 3837:1 50000:1 60001:1 60002:1 60003:1 60004:1 60005:1 10003761:1 10037610:1 10376100:1 #
0.10898339483623334378314950754429 4296:1 50000:1 60001:1 60002:1 60003:1 60004:1 60005:1 10001513:1 10015130:1 10151300:1 #
-0.10898339483623334378314950754429 4059:1 50000:1 60001:1 60003:1 60005:1 10003600:1 10036000:1 10360000:1 #
-0.10898339483623334378314950754429 8964:1 50000:1 60001:1 60003:1 60005:1 10003551:1 10035510:1 10355100:1 #
-0.10898339483623334378314950754429 4615:1 50000:1 60001:1 60003:1 60004:1 60005:1 10003551:1 10035510:1 10355100:1 #
0.10898339483623334378314950754429 3224:1 50000:1 60001:1 60003:1 60005:1 10003780:1 10037800:1 10378000:1 #
0.10898339483623334378314950754429 3299:1 50000:1 60001:1 60003:1 60005:1 10003780:1 10037800:1 10378000:1 #
0.10898339483623334378314950754429 4568:1 50000:1 60001:1 60003:1 60005:1 10003650:1 10036500:1 10365000:1 #
-0.10898339483623334378314950754429 11818:1 50000:1 60001:1 60003:1 60004:1 60005:1 60006:1 60007:1 60008:1 10003761:1 10037610:1 10376100:1 #
-0.10898339483623334378314950754429 6141:1 50000:1 60001:1 60003:1 60005:1 10001513:1 10015130:1 10151300:1 #
-0.10898339483623334378314950754429 6306:1 50000:1 60001:1 60003:1 60005:1 10003761:1 10037610:1 10376100:1 #
0.10898339483623334378314950754429 7979:1 50000:1 60001:1 60003:1 60004:1 60005:1 10003551:1 10035510:1 10355100:1 #
0.10898339483623334378314950754429 4363:1 50000:1 60001:1 60002:1 60003:1 60004:1 60005:1 10003551:1 10035510:1 10355100:1 #
0.10898339483623334378314950754429 4522:1 50000:1 60001:1 60003:1 60004:1 60005:1 60007:1 60008:1 10003551:1 10035510:1 10355100:1 #
-0.10898339483623334378314950754429 4518:1 50000:1 60001:1 60002:1 60003:1 60004:1 60005:1 10001220:1 10012200:1 10122000:1 #
-0.10898339483623334378314950754429 5830:1 50000:1 60001:1 60002:1 60003:1 60004:1 60005:1 10003650:1 10036500:1 10365000:1 #
-0.10898339483623334378314950754429 7581:1 50000:1 60001:1 60002:1 60003:1 60004:1 60005:1 10003640:1 10036400:1 10364000:1 #
0.095321734316629283534361150032055 3260:1 50000:1 60001:1 60003:1 60005:1 10003761:1 10037610:1 10376100:1 #
0.095321734316629477823390459434449 3263:1 50000:1 60001:1 60003:1 60005:1 10003761:1 10037610:1 10376100:1 #
0.10898339483623334378314950754429 10193:1 50000:1 60001:1 60003:1 60005:1 10003371:1 10033710:1 10337100:1 #
-0.10898339483623334378314950754429 6087:1 50000:1 60001:1 60003:1 60005:1 10003780:1 10037800:1 10378000:1 #
-0.10898339483623334378314950754429 6093:1 50000:1 60001:1 60003:1 60005:1 10003780:1 10037800:1 10378000:1 #
-0.10898339483623334378314950754429 6112:1 50000:1 60001:1 60003:1 60005:1 10003780:1 10037800:1 10378000:1 #
0.10898339483623334378314950754429 10815:1 50000:1 60001:1 60003:1 60005:1 10003650:1 10036500:1 10365000:1 #
0.10898339483623334378314950754429 11342:1 50000:1 60001:1 60003:1 60005:1 10003650:1 10036500:1 10365000:1 #
0.10898339483623334378314950754429 8462:1 50000:1 60001:1 60003:1 60005:1 10004630:1 10046300:1 10463000:1 #
-0.10898339483623334378314950754429 12223:1 50000:1 60001:1 60003:1 60005:1 10003761:1 10037610:1 10376100:1 #
-0.10898339483623334378314950754429 5139:1 50000:1 60001:1 60003:1 60004:1 60005:1 10003650:1 10036500:1 10365000:1 #
-0.10898339483623334378314950754429 10807:1 50000:1 60001:1 60003:1 60004:1 60005:1 10003650:1 10036500:1 10365000:1 #
0.10898339483623334378314950754429 11371:1 50000:1 60001:1 60003:1 60005:1 10003640:1 10036400:1 10364000:1 #
0.10898339483623334378314950754429 4558:1 50000:1 60001:1 60002:1 60003:1 60004:1 60005:1 10003700:1 10037000:1 10370000:1 #
0.10898339483623334378314950754429 5329:1 50000:1 60001:1 60002:1 60003:1 60004:1 60005:1 10001512:1 10015120:1 10151200:1 #
-0.10898339483623334378314950754429 7177:1 50000:1 60001:1 60003:1 60005:1 10001512:1 10015120:1 10151200:1 #
-0.10898339483623334378314950754429 11077:1 50000:1 60001:1 60003:1 60004:1 60005:1 10003700:1 10037000:1 10370000:1 #
-0.057991561826765000708938657680847 13270:1 50000:1 60001:1 60002:1 60003:1 60004:1 60005:1 60006:1 10001512:1 10015120:1 10151200:1 #
0.10898339483623334378314950754429 5590:1 50000:1 60001:1 60003:1 60005:1 60007:1 10001524:1 10015240:1 10152400:1 #
0.10898339483623334378314950754429 1019:1 50000:1 60001:1 60003:1 60005:1 60006:1 10001506:1 10015060:1 10150600:1 #
0.10898339483623334378314950754429 1792:1 50000:1 60001:1 60003:1 60005:1 60006:1 10001563:1 10015630:1 10156300:1 #
-0.10898339483623334378314950754429 4955:1 50000:1 60001:1 60003:1 60005:1 10001506:1 10015060:1 10150600:1 #
-0.10898339483623334378314950754429 4273:1 50000:1 60001:1 60003:1 60005:1 60007:1 10003075:1 10030750:1 10307500:1 #
-0.10898339483623334378314950754429 6213:1 50000:1 60001:1 60003:1 60005:1 60007:1 10003823:1 10038230:1 10382300:1 #
0.10898339483623334378314950754429 3658:1 50000:1 60001:1 60003:1 60005:1 60006:1 10001512:1 10015120:1 10151200:1 #
0.10898339483623334378314950754429 10176:1 50000:1 60001:1 60002:1 60003:1 60004:1 60005:1 10004620:1 10046200:1 10462000:1 #
0.10898339483623334378314950754429 10586:1 50000:1 60001:1 60002:1 60003:1 60004:1 60005:1 10003810:1 10038100:1 10381000:1 #
-0.10898339483623334378314950754429 12665:1 50000:1 60001:1 60002:1 60003:1 60004:1 60005:1 60006:1 10003810:1 10038100:1 10381000:1 #
-0.10898339483623334378314950754429 3205:1 50000:1 60001:1 60003:1 60005:1 10004620:1 10046200:1 10462000:1 #
-0.10898339483623334378314950754429 3961:1 50000:1 60001:1 60003:1 60005:1 10004620:1 10046200:1 10462000:1 #
0.10898339483623334378314950754429 12579:1 50000:1 60001:1 60003:1 60005:1 60007:1 10003823:1 10038230:1 10382300:1 #
0.10898339483623334378314950754429 7287:1 50000:1 60001:1 60003:1 60005:1 10003823:1 10038230:1 10382300:1 #
0.10898339483623334378314950754429 7427:1 50000:1 60001:1 60003:1 60005:1 60007:1 60008:1 10003642:1 10036420:1 10364200:1 #
-0.10898339483623334378314950754429 3674:1 50000:1 60001:1 60003:1 60005:1 10003823:1 10038230:1 10382300:1 #
0.10898339483623334378314950754429 493:1 50000:1 60001:1 60003:1 60004:1 60005:1 10001530:1 10015300:1 10153000:1 #
0.088813109498762379812042411231232 10936:1 50000:1 60001:1 60003:1 60005:1 10003770:1 10037700:1 10377000:1 #
0.060358090886505788574822872760706 8924:1 50000:1 60001:1 60003:1 60004:1 60005:1 60007:1 10003560:1 10035600:1 10356000:1 #
0.094620018389631646571480416696431 812:1 50000:1 60001:1 60003:1 60004:1 60005:1 10003560:1 10035600:1 10356000:1 #
0.05195365302664069206972641268294 1253:1 50000:1 60001:1 60003:1 60004:1 60005:1 10003133:1 10031330:1 10313300:1 #
-0.10898339483623334378314950754429 10521:1 50000:1 60001:1 60003:1 60005:1 10001530:1 10015300:1 10153000:1 #
0.10272464589824215064339796299464 13380:1 50000:1 60001:1 60003:1 60005:1 10003001:1 10030010:1 10300100:1 #
-0.058262081586472586058889078231005 12766:1 50000:1 60001:1 60003:1 60005:1 60006:1 60007:1 60008:1 10001525:1 10015250:1 10152500:1 #
0.10898339483623334378314950754429 1316:1 50000:1 60001:1 60003:1 60004:1 60005:1 10003510:1 10035100:1 10351000:1 #
0.041576986737760508738848130860788 2550:1 50000:1 60001:1 60003:1 60004:1 60005:1 10003520:1 10035200:1 10352000:1 #
0.10266118167415196060776594322306 3511:1 50000:1 60001:1 60003:1 60004:1 60005:1 10003620:1 10036200:1 10362000:1 #
-0.10898339483623334378314950754429 7053:1 50000:1 60001:1 60003:1 60004:1 60005:1 10003560:1 10035600:1 10356000:1 #
-0.10898339483623334378314950754429 8905:1 50000:1 60001:1 60002:1 60003:1 60004:1 60005:1 10003640:1 10036400:1 10364000:1 #
-0.0068110232399546371401255484556714 8934:1 50000:1 60001:1 60002:1 60003:1 60004:1 60005:1 10003542:1 10035420:1 10354200:1 #
0.10898339483623334378314950754429 2141:1 50000:1 60001:1 60003:1 60005:1 60006:1 10003050:1 10030500:1 10305000:1 #
0.10898339483623334378314950754429 2598:1 50000:1 60001:1 60003:1 60005:1 60006:1 10003040:1 10030400:1 10304000:1 #
0.10898339483623334378314950754429 5017:1 50000:1 60001:1 60003:1 60005:1 60006:1 10001230:1 10012300:1 10123000:1 #
-0.10898339483623334378314950754429 6222:1 50000:1 60001:1 60003:1 60005:1 10003510:1 10035100:1 10351000:1 #
-0.10898339483623334378314950754429 7127:1 50000:1 60001:1 60003:1 60004:1 60005:1 10003551:1 10035510:1 10355100:1 #
-0.10898339483623334378314950754429 2459:1 50000:1 60001:1 60003:1 60004:1 60005:1 10003770:1 10037700:1 10377000:1 #
0.021539213362740006196816011652118 3437:1 50000:1 60001:1 60003:1 60005:1 60007:1 60008:1 10003761:1 10037610:1 10376100:1 #
0.0073746817381594963192181779731982 4169:1 50000:1 60001:1 60003:1 60005:1 60007:1 60008:1 10003530:1 10035300:1 10353000:1 #
0.10898339483623334378314950754429 8079:1 50000:1 60001:1 60003:1 60005:1 60007:1 60008:1 10001521:1 10015210:1 10152100:1 #
-0.10898339483623334378314950754429 7599:1 50000:1 60001:1 60003:1 60005:1 60007:1 10003530:1 10035300:1 10353000:1 #
-0.10898339483623334378314950754429 13234:1 50000:1 60001:1 60003:1 60005:1 10001521:1 10015210:1 10152100:1 #
-0.10898339483623334378314950754429 7012:1 50000:1 60001:1 60003:1 60005:1 60007:1 10002418:1 10024180:1 10241800:1 #
0.10898339483623334378314950754429 6082:1 50000:1 60001:1 60003:1 60005:1 10003542:1 10035420:1 10354200:1 #
0.10898339483623334378314950754429 11200:1 50000:1 60001:1 60002:1 60003:1 60004:1 60005:1 10003852:1 10038520:1 10385200:1 #
0.10898339483623334378314950754429 12477:1 50000:1 60001:1 60002:1 60003:1 60004:1 60005:1 10003070:1 10030700:1 10307000:1 #
-0.10898339483623334378314950754429 3790:1 50000:1 60001:1 60003:1 60005:1 10003070:1 10030700:1 10307000:1 #
-0.10898339483623334378314950754429 12062:1 50000:1 60001:1 60003:1 60005:1 10003070:1 10030700:1 10307000:1 #
-0.10898339483623334378314950754429 11872:1 50000:1 60001:1 60002:1 60003:1 60004:1 60005:1 60006:1 10003761:1 10037610:1 10376100:1 #
0.056040128119363104286509980056508 2079:1 50000:1 60001:1 60003:1 60005:1 60007:1 10003770:1 10037700:1 10377000:1 #
0.0560401281193618552856072767554 10178:1 50000:1 60001:1 60003:1 60005:1 60007:1 10003770:1 10037700:1 10377000:1 #
0.056040128119363770420324755150432 10724:1 50000:1 60001:1 60003:1 60005:1 60007:1 10003770:1 10037700:1 10377000:1 #
-0.10898339483623334378314950754429 2002:1 50000:1 60001:1 60003:1 60004:1 60005:1 60006:1 10003770:1 10037700:1 10377000:1 #
-0.10898339483623334378314950754429 2060:1 50000:1 60001:1 60002:1 60003:1 60004:1 60005:1 60006:1 10003770:1 10037700:1 10377000:1 #
-0.10898339483623334378314950754429 7153:1 50000:1 60001:1 60003:1 60005:1 60007:1 10003800:1 10038000:1 10380000:1 #
0.073585630479643934775957347937947 1077:1 50000:1 60001:1 60003:1 60005:1 10003070:1 10030700:1 10307000:1 #
0.073585630479644129064986657340341 1858:1 50000:1 60001:1 60003:1 60005:1 10003070:1 10030700:1 10307000:1 #
0.073585630479643740486928038535552 1867:1 50000:1 60001:1 60003:1 60005:1 10003070:1 10030700:1 10307000:1 #
-0.10898339483623334378314950754429 7550:1 50000:1 60001:1 60003:1 60005:1 60007:1 10003400:1 10034000:1 10340000:1 #
-0.10898339483623334378314950754429 12430:1 50000:1 60001:1 60003:1 60005:1 10001550:1 10015500:1 10155000:1 #
-0.10898339483623334378314950754429 3062:1 50000:1 60001:1 60003:1 60005:1 10003611:1 10036110:1 10361100:1 #
0.10898339483623334378314950754429 11313:1 50000:1 60001:1 60003:1 60005:1 60006:1 10001251:1 10012510:1 10125100:1 #
0.10898339483623334378314950754429 11544:1 50000:1 60001:1 60003:1 60005:1 60006:1 10001251:1 10012510:1 10125100:1 #
0.10898339483623334378314950754429 11873:1 50000:1 60001:1 60003:1 60005:1 60006:1 10003760:1 10037600:1 10376000:1 #
-0.10898339483623334378314950754429 3241:1 50000:1 60001:1 60003:1 60005:1 10003760:1 10037600:1 10376000:1 #
-0.10898339483623334378314950754429 3811:1 50000:1 60001:1 60003:1 60005:1 10003760:1 10037600:1 10376000:1 #
-0.10898339483623334378314950754429 6282:1 50000:1 60001:1 60003:1 60005:1 10003760:1 10037600:1 10376000:1 #
0.10898339483623334378314950754429 2745:1 50000:1 60001:1 60003:1 60005:1 60007:1 10003800:1 10038000:1 10380000:1 #
0.10898339483623334378314950754429 3751:1 50000:1 60001:1 60003:1 60005:1 60007:1 10003611:1 10036110:1 10361100:1 #
0.10898339483623334378314950754429 3999:1 50000:1 60001:1 60003:1 60005:1 10003800:1 10038000:1 10380000:1 #
-0.10898339483623334378314950754429 11301:1 50000:1 60001:1 60003:1 60005:1 60007:1 10003800:1 10038000:1 10380000:1 #
-0.10898339483623334378314950754429 11477:1 50000:1 60001:1 60003:1 60005:1 60007:1 10003800:1 10038000:1 10380000:1 #
-0.097369588720999863951099939640699 9998:1 50000:1 60001:1 60003:1 60005:1 10003800:1 10038000:1 10380000:1 #
0.10898339483623334378314950754429 5693:1 50000:1 60001:1 60003:1 60004:1 60005:1 10003760:1 10037600:1 10376000:1 #
0.10898339483623334378314950754429 12239:1 50000:1 60001:1 60003:1 60004:1 60005:1 10003760:1 10037600:1 10376000:1 #
0.099883224902956369017914539654157 3207:1 50000:1 60001:1 60003:1 60005:1 10003760:1 10037600:1 10376000:1 #
-0.10898339483623334378314950754429 2686:1 50000:1 60001:1 60002:1 60003:1 60004:1 60005:1 60006:1 10001251:1 10012510:1 10125100:1 #
-0.10898339483623334378314950754429 3554:1 50000:1 60001:1 60003:1 60004:1 60005:1 10003760:1 10037600:1 10376000:1 #
-0.10898339483623334378314950754429 5746:1 50000:1 60001:1 60003:1 60004:1 60005:1 60006:1 60007:1 60008:1 10003760:1 10037600:1 10376000:1 #
0.10898339483623334378314950754429 11894:1 50000:1 60001:1 60003:1 60005:1 60006:1 10003152:1 10031520:1 10315200:1 #
0.10898339483623334378314950754429 4965:1 50000:1 60001:1 60003:1 60005:1 60006:1 10003084:1 10030840:1 10308400:1 #
0.094519619901026585839787230725051 1072:1 50000:1 60001:1 60003:1 60005:1 60007:1 10003510:1 10035100:1 10351000:1 #
-0.10898339483623334378314950754429 11277:1 50000:1 60001:1 60003:1 60005:1 60006:1 10003852:1 10038520:1 10385200:1 #
-0.10898339483623334378314950754429 11429:1 50000:1 60001:1 60003:1 60005:1 60006:1 10003852:1 10038520:1 10385200:1 #
-0.10898339483623334378314950754429 3400:1 50000:1 60001:1 60003:1 60005:1 10005740:1 10057400:1 10574000:1 #
0.099958950469937579708101793585229 4553:1 50000:1 60001:1 60003:1 60005:1 10003760:1 10037600:1 10376000:1 #
0.099883224902955494717282647343382 5698:1 50000:1 60001:1 60003:1 60005:1 10003760:1 10037600:1 10376000:1 #
0.099958950469937982163948220204475 11933:1 50000:1 60001:1 60003:1 60005:1 10003760:1 10037600:1 10376000:1 #
-0.10898339483623334378314950754429 3572:1 50000:1 60001:1 60003:1 60005:1 10003832:1 10038320:1 10383200:1 #
-0.10898339483623334378314950754429 4127:1 50000:1 60001:1 60003:1 60005:1 10003380:1 10033800:1 10338000:1 #
-0.10898339483623334378314950754429 4179:1 50000:1 60001:1 60003:1 60005:1 10003080:1 10030800:1 10308000:1 #
0.10898339483623334378314950754429 1847:1 50000:1 60001:1 60003:1 60004:1 60005:1 60006:1 60007:1 60008:1 10001504:1 10015040:1 10150400:1 #
0.082252284487404861423875956916163 1817:1 50000:1 60001:1 60003:1 60005:1 10003852:1 10038520:1 10385200:1 #
0.082252284487404583868119800627028 2219:1 50000:1 60001:1 60003:1 60005:1 10003852:1 10038520:1 10385200:1 #
-0.10898339483623334378314950754429 4431:1 50000:1 60001:1 60003:1 60005:1 10003802:1 10038020:1 10380200:1 #
-0.10898339483623334378314950754429 4437:1 50000:1 60001:1 60003:1 60005:1 10001582:1 10015820:1 10158200:1 #
-0.10898339483623334378314950754429 4610:1 50000:1 60001:1 60003:1 60005:1 10003501:1 10035010:1 10350100:1 #
0.089880929533155101696095812258136 3579:1 50000:1 60001:1 60003:1 60005:1 10003832:1 10038320:1 10383200:1 #
0.090046747024146098214991695840581 4775:1 50000:1 60001:1 60003:1 60005:1 10003832:1 10038320:1 10383200:1 #
0.090047654341813609946143515117001 5420:1 50000:1 60001:1 60003:1 60005:1 10003832:1 10038320:1 10383200:1 #
-0.10898339483623334378314950754429 9172:1 50000:1 60001:1 60003:1 60004:1 60005:1 10003832:1 10038320:1 10383200:1 #
-0.10898339483623334378314950754429 4952:1 50000:1 60001:1 60003:1 60005:1 10001040:1 10010400:1 10104000:1 #
-0.1066979243360269696827558050245 5201:1 50000:1 60001:1 60003:1 60005:1 10003210:1 10032100:1 10321000:1 #
0.10898339483623334378314950754429 5659:1 50000:1 60001:1 60003:1 60005:1 10003802:1 10038020:1 10380200:1 #
0.10898339483623334378314950754429 3521:1 50000:1 60001:1 60003:1 60004:1 60005:1 10003701:1 10037010:1 10370100:1 #
0.10898339483623334378314950754429 4270:1 50000:1 60001:1 60003:1 60004:1 60005:1 10003530:1 10035300:1 10353000:1 #
-0.10898339483623334378314950754429 8074:1 50000:1 60001:1 60003:1 60004:1 60005:1 60007:1 10003542:1 10035420:1 10354200:1 #
-0.10898339483623334378314950754429 5388:1 50000:1 60001:1 60003:1 60005:1 10003801:1 10038010:1 10380100:1 #
-0.10898339483623334378314950754429 5457:1 50000:1 60001:1 60003:1 60005:1 10003122:1 10031220:1 10312200:1 #
0.10898339483623334378314950754429 4305:1 50000:1 60001:1 60003:1 60005:1 60007:1 10003380:1 10033800:1 10338000:1 #
0.067101999284302049630923647782765 4356:1 50000:1 60001:1 60003:1 60004:1 60005:1 10001112:1 10011120:1 10111200:1 #
0.079036088331658399530610381589213 4456:1 50000:1 60001:1 60003:1 60004:1 60005:1 10001580:1 10015800:1 10158000:1 #
-0.10898339483623334378314950754429 4543:1 50000:1 60001:1 60002:1 60003:1 60004:1 60005:1 60006:1 10003760:1 10037600:1 10376000:1 #
-0.10898339483623334378314950754429 5872:1 50000:1 60001:1 60003:1 60004:1 60005:1 10001561:1 10015610:1 10156100:1 #
-0.10898339483623334378314950754429 7381:1 50000:1 60001:1 60003:1 60004:1 60005:1 10003480:1 10034800:1 10348000:1 #
0.10898339483623334378314950754429 2330:1 50000:1 60001:1 60003:1 60005:1 60007:1 60008:1 10003080:1 10030800:1 10308000:1 #
0.10898339483623334378314950754429 5530:1 50000:1 60001:1 60003:1 60005:1 60007:1 60008:1 10001582:1 10015820:1 10158200:1 #
0.095321734316629880279236886053695 11831:1 50000:1 60001:1 60003:1 60005:1 10003761:1 10037610:1 10376100:1 #
-0.10898339483623334378314950754429 5667:1 50000:1 60001:1 60003:1 60005:1 10003802:1 10038020:1 10380200:1 #
-0.10898339483623334378314950754429 5733:1 50000:1 60001:1 60003:1 60005:1 10003802:1 10038020:1 10380200:1 #
-0.10898339483623334378314950754429 6120:1 50000:1 60001:1 60003:1 60005:1 10001130:1 10011300:1 10113000:1 #
0.10898339483623334378314950754429 5866:1 50000:1 60001:1 60003:1 60005:1 10001561:1 10015610:1 10156100:1 #
0.094620018389633006594685582513193 4512:1 50000:1 60001:1 60003:1 60004:1 60005:1 10003560:1 10035600:1 10356000:1 #
0.10419691806458890315223442257775 5310:1 50000:1 60001:1 60003:1 60004:1 60005:1 10001523:1 10015230:1 10152300:1 #
-0.10898339483623334378314950754429 6951:1 50000:1 60001:1 60003:1 60005:1 10003560:1 10035600:1 10356000:1 #
-0.10898339483623334378314950754429 7168:1 50000:1 60001:1 60003:1 60005:1 10003560:1 10035600:1 10356000:1 #
-0.10898339483623334378314950754429 11243:1 50000:1 60001:1 60003:1 60005:1 10003560:1 10035600:1 10356000:1 #
0.10898339483623334378314950754429 3633:1 50000:1 60001:1 60003:1 60005:1 10001130:1 10011300:1 10113000:1 #
0.10898339483623334378314950754429 102:1 50000:1 60001:1 60002:1 60003:1 60004:1 60005:1 10003065:1 10030650:1 10306500:1 #
0.10898339483623334378314950754429 10957:1 50000:1 60001:1 60002:1 60003:1 60004:1 60005:1 10003065:1 10030650:1 10306500:1 #
-0.10898339483623334378314950754429 5747:1 50000:1 60001:1 60003:1 60004:1 60005:1 60006:1 60007:1 60008:1 10003067:1 10030670:1 10306700:1 #
0.029114341072087161071957339686378 13043:1 50000:1 60001:1 60003:1 60005:1 10003050:1 10030500:1 10305000:1 #
-0.048336222256592231705241147210472 12097:1 50000:1 60001:1 60003:1 60004:1 60005:1 60006:1 60007:1 60008:1 10003103:1 10031030:1 10310300:1 #
0.055916987290524924891776947788458 4350:1 50000:1 60001:1 60003:1 60005:1 10003560:1 10035600:1 10356000:1 #
0.055719634800134129615223343989783 4476:1 50000:1 60001:1 60003:1 60005:1 10003560:1 10035600:1 10356000:1 #
0.055665656898000501207057766350772 8590:1 50000:1 60001:1 60003:1 60005:1 10003560:1 10035600:1 10356000:1 #
-0.10898339483623334378314950754429 5807:1 50000:1 60001:1 60003:1 60005:1 10001561:1 10015610:1 10156100:1 #
-0.10898339483623334378314950754429 6823:1 50000:1 60001:1 60003:1 60005:1 10004400:1 10044000:1 10440000:1 #
-0.10898339483623334378314950754429 6856:1 50000:1 60001:1 60003:1 60005:1 10004310:1 10043100:1 10431000:1 #
0.10898339483623334378314950754429 5754:1 50000:1 60001:1 60003:1 60005:1 60006:1 10001502:1 10015020:1 10150200:1 #
0.10898339483623334378314950754429 12820:1 50000:1 60001:1 60003:1 60005:1 60006:1 10003850:1 10038500:1 10385000:1 #
0.10898339483623334378314950754429 13524:1 50000:1 60001:1 60003:1 60005:1 60006:1 10001505:1 10015050:1 10150500:1 #
-0.10898339483623334378314950754429 7263:1 50000:1 60001:1 60003:1 60005:1 10003300:1 10033000:1 10330000:1 #
-0.10898339483623334378314950754429 7343:1 50000:1 60001:1 60003:1 60005:1 10003020:1 10030200:1 10302000:1 #
-0.10898339483623334378314950754429 8036:1 50000:1 60001:1 60003:1 60005:1 10003114:1 10031140:1 10311400:1 #
0.0051330341111553209193507640861753 2055:1 50000:1 60001:1 60003:1 60005:1 60007:1 60008:1 10003067:1 10030670:1 10306700:1 #
0.10898339483623334378314950754429 12964:1 50000:1 60001:1 60003:1 60005:1 60007:1 10003480:1 10034800:1 10348000:1 #
0.078629674204031177464635504748003 1841:1 50000:1 60001:1 60003:1 60005:1 10003067:1 10030670:1 10306700:1 #
-0.10898339483623334378314950754429 8123:1 50000:1 60001:1 60003:1 60005:1 10003231:1 10032310:1 10323100:1 #
-0.10898339483623334378314950754429 8135:1 50000:1 60001:1 60003:1 60005:1 10003100:1 10031000:1 10310000:1 #
-0.10898339483623334378314950754429 8260:1 50000:1 60001:1 60003:1 60005:1 10005840:1 10058400:1 10584000:1 #
0.084028016002158048558534630956274 2209:1 50000:1 60001:1 60003:1 60005:1 10003020:1 10030200:1 10302000:1 #
0.083174297450689313460081564244319 2934:1 50000:1 60001:1 60003:1 60005:1 10003020:1 10030200:1 10302000:1 #
0.083081914290755315422032367678185 9272:1 50000:1 60001:1 60003:1 60005:1 10003020:1 10030200:1 10302000:1 #
-0.10898339483623334378314950754429 8578:1 50000:1 60001:1 60003:1 60005:1 10002452:1 10024520:1 10245200:1 #
0.078597651253805189686119092584704 5911:1 50000:1 60001:1 60003:1 60004:1 60005:1 10003532:1 10035320:1 10353200:1 #
-0.10898339483623334378314950754429 8445:1 50000:1 60001:1 60003:1 60005:1 10005290:1 10052900:1 10529000:1 #
-0.10898339483623334378314950754429 8332:1 50000:1 60001:1 60003:1 60005:1 10002452:1 10024520:1 10245200:1 #
0.081509928120558378106252916950325 7615:1 50000:1 60001:1 60003:1 60004:1 60005:1 10005810:1 10058100:1 10581000:1 #
0.078368314919823087172368047959026 6597:1 50000:1 60001:1 60003:1 60004:1 60005:1 10003532:1 10035320:1 10353200:1 #
-0.10898339483623334378314950754429 8770:1 50000:1 60001:1 60003:1 60005:1 10003642:1 10036420:1 10364200:1 #
-0.10898339483623334378314950754429 8910:1 50000:1 60001:1 60003:1 60005:1 10003642:1 10036420:1 10364200:1 #
-0.10898339483623334378314950754429 9043:1 50000:1 60001:1 60003:1 60005:1 10003392:1 10033920:1 10339200:1 #
0.10898339483623334378314950754429 7693:1 50000:1 60001:1 60003:1 60004:1 60005:1 10003500:1 10035000:1 10350000:1 #
0.10898339483623334378314950754429 7766:1 50000:1 60001:1 60003:1 60004:1 60005:1 10003470:1 10034700:1 10347000:1 #
0.10898339483623334378314950754429 8196:1 50000:1 60001:1 60003:1 60004:1 60005:1 10001350:1 10013500:1 10135000:1 #
-0.10898339483623334378314950754429 12349:1 50000:1 60001:1 60003:1 60004:1 60005:1 10003470:1 10034700:1 10347000:1 #
0.084380589889962220873087517247768 2653:1 50000:1 60001:1 60003:1 60005:1 10001528:1 10015280:1 10152800:1 #
-0.10898339483623334378314950754429 10783:1 50000:1 60001:1 60003:1 60004:1 60005:1 10001121:1 10011210:1 10112100:1 #
-0.10898339483623334378314950754429 11337:1 50000:1 60001:1 60003:1 60004:1 60005:1 10003153:1 10031530:1 10315300:1 #
0.10898339483623334378314950754429 5897:1 50000:1 60001:1 60003:1 60005:1 10003710:1 10037100:1 10371000:1 #
0.084380589889960680438640849843068 4237:1 50000:1 60001:1 60003:1 60005:1 10001528:1 10015280:1 10152800:1 #
-0.10898339483623334378314950754429 11534:1 50000:1 60001:1 60003:1 60004:1 60005:1 10003320:1 10033200:1 10332000:1 #
-0.10898339483623334378314950754429 10991:1 50000:1 60001:1 60003:1 60005:1 10001528:1 10015280:1 10152800:1 #
-0.10898339483623334378314950754429 10628:1 50000:1 60001:1 60002:1 60003:1 60004:1 60005:1 60006:1 60007:1 10003701:1 10037010:1 10370100:1 #
0.10898339483623334378314950754429 6333:1 50000:1 60001:1 60003:1 60005:1 10003064:1 10030640:1 10306400:1 #
0.10898339483623334378314950754429 6357:1 50000:1 60001:1 60003:1 60005:1 10003064:1 10030640:1 10306400:1 #
0.10898339483623334378314950754429 6368:1 50000:1 60001:1 60003:1 60005:1 10003064:1 10030640:1 10306400:1 #
-0.10898339483623334378314950754429 4496:1 50000:1 60001:1 60003:1 60005:1 10003064:1 10030640:1 10306400:1 #
-0.10898339483623334378314950754429 8717:1 50000:1 60001:1 60003:1 60005:1 10003064:1 10030640:1 10306400:1 #
-0.10898339483623334378314950754429 13461:1 50000:1 60001:1 60003:1 60005:1 10003064:1 10030640:1 10306400:1 #
0.097068017118767335738027668412542 11308:1 50000:1 60001:1 60003:1 60005:1 10003320:1 10033200:1 10332000:1 #
0.097102229918047094914257399977942 11325:1 50000:1 60001:1 60003:1 60005:1 10003320:1 10033200:1 10332000:1 #
0.097068017118766725115364124576445 11524:1 50000:1 60001:1 60003:1 60005:1 10003320:1 10033200:1 10332000:1 #
-0.10898339483623334378314950754429 11345:1 50000:1 60001:1 60003:1 60005:1 10003320:1 10033200:1 10332000:1 #
-0.10898339483623334378314950754429 10489:1 50000:1 60001:1 60003:1 60005:1 10004630:1 10046300:1 10463000:1 #
-0.10898339483623334378314950754429 11808:1 50000:1 60001:1 60003:1 60005:1 10003140:1 10031400:1 10314000:1 #
0.10898339483623334378314950754429 12070:1 50000:1 60001:1 60003:1 60004:1 60005:1 10003701:1 10037010:1 10370100:1 #
0.087208171798321090784078535307344 12922:1 50000:1 60001:1 60003:1 60004:1 60005:1 10003810:1 10038100:1 10381000:1 #
0.10898339483623334378314950754429 13260:1 50000:1 60001:1 60003:1 60004:1 60005:1 10001522:1 10015220:1 10152200:1 #
-0.032914134634804553813935967809812 4216:1 50000:1 60001:1 60003:1 60004:1 60005:1 60010:1 10003532:1 10035320:1 10353200:1 #
-0.064079878187240355003062575178774 5814:1 50000:1 60001:1 60003:1 60004:1 60005:1 60010:1 10003850:1 10038500:1 10385000:1 #
-0.016869762249278316690315193682181 530:1 50000:1 60001:1 60003:1 60004:1 60005:1 60010:1 10003670:1 10036700:1 10367000:1 #
0.10898339483623334378314950754429 510:1 50000:1 60001:1 60003:1 60005:1 10003140:1 10031400:1 10314000:1 #
0.10898339483623334378314950754429 3252:1 50000:1 60001:1 60003:1 60005:1 10003140:1 10031400:1 10314000:1 #
0.10898339483623334378314950754429 7747:1 50000:1 60001:1 60003:1 60005:1 10003140:1 10031400:1 10314000:1 #
-0.10898339483623334378314950754429 12255:1 50000:1 60001:1 60003:1 60005:1 10003140:1 10031400:1 10314000:1 #
-0.10898339483623334378314950754429 12329:1 50000:1 60001:1 60003:1 60005:1 10003060:1 10030600:1 10306000:1 #
-0.10898339483623334378314950754429 12456:1 50000:1 60001:1 60003:1 60005:1 10003830:1 10038300:1 10383000:1 #
0.10898339483623334378314950754429 8581:1 50000:1 60001:1 60003:1 60005:1 10004630:1 10046300:1 10463000:1 #
0.055391433672259918208347073687037 6599:1 50000:1 60001:1 60003:1 60004:1 60005:1 60007:1 10003134:1 10031340:1 10313400:1 #
0.083366648153927261355455868852005 11356:1 50000:1 60001:1 60003:1 60004:1 60005:1 60007:1 10003630:1 10036300:1 10363000:1 #
-0.10898339483623334378314950754429 12834:1 50000:1 60001:1 60003:1 60005:1 10004630:1 10046300:1 10463000:1 #
0.10898339483623334378314950754429 5180:1 50000:1 60001:1 60003:1 60005:1 10003830:1 10038300:1 10383000:1 #
-0.10898339483623334378314950754429 12551:1 50000:1 60001:1 60003:1 60005:1 10003822:1 10038220:1 10382200:1 #
-0.10898339483623334378314950754429 12563:1 50000:1 60001:1 60003:1 60005:1 10003822:1 10038220:1 10382200:1 #
0.10898339483623334378314950754429 6428:1 50000:1 60001:1 60003:1 60005:1 10003064:1 10030640:1 10306400:1 #
0.10898339483623334378314950754429 11135:1 50000:1 60001:1 60003:1 60005:1 10003830:1 10038300:1 10383000:1 #
-0.10898339483623334378314950754429 12874:1 50000:1 60001:1 60003:1 60005:1 10001200:1 10012000:1 10120000:1 #
-0.10898339483623334378314950754429 13076:1 50000:1 60001:1 60003:1 60005:1 10005030:1 10050300:1 10503000:1 #
-0.10898339483623334378314950754429 13359:1 50000:1 60001:1 60003:1 60005:1 10004110:1 10041100:1 10411000:1 #
0.10898339483623334378314950754429 9078:1 50000:1 60001:1 60003:1 60005:1 10001513:1 10015130:1 10151300:1 #
0.10898339483623334378314950754429 11015:1 50000:1 60001:1 60003:1 60005:1 10003064:1 10030640:1 10306400:1 #
0.1070417750740532414344130529571 12943:1 50000:1 60001:1 60003:1 60005:1 10003613:1 10036130:1 10361300:1 #
-0.10898339483623334378314950754429 8153:1 50000:1 60001:1 60003:1 60005:1 10001513:1 10015130:1 10151300:1 #
-0.10898339483623334378314950754429 11406:1 50000:1 60001:1 60003:1 60005:1 10001513:1 10015130:1 10151300:1 #
-0.10898339483623334378314950754429 12996:1 50000:1 60001:1 60003:1 60005:1 10003613:1 10036130:1 10361300:1 #
0.10898339483623334378314950754429 5538:1 50000:1 60001:1 60003:1 60005:1 10003822:1 10038220:1 10382200:1 #
0.10898339483623334378314950754429 5833:1 50000:1 60001:1 60003:1 60005:1 60007:1 60008:1 10003822:1 10038220:1 10382200:1 #
0.10291636236719388375338013474902 201:1 50000:1 60001:1 60003:1 60005:1 10003141:1 10031410:1 10314100:1 #
-0.10898339483623334378314950754429 13523:1 50000:1 60001:1 60003:1 60004:1 60005:1 60006:1 10003064:1 10030640:1 10306400:1 #
-0.055116924987228602117461662146525 7929:1 50000:1 60001:1 60003:1 60004:1 60005:1 60006:1 60009:1 10003064:1 10030640:1 10306400:1 #
-0.014888546278959101376582196962772 2646:1 50000:1 60001:1 60003:1 60004:1 60005:1 60006:1 60007:1 60009:1 10003830:1 10038300:1 10383000:1 #
0.10302131566831750075774465358336 409:1 50000:1 60001:1 60003:1 60005:1 10001500:1 10015000:1 10150000:1 #
0.094932221882654460598516266145452 462:1 50000:1 60001:1 60003:1 60005:1 10003610:1 10036100:1 10361000:1 #
0.10298398560975015325613668437654 918:1 50000:1 60001:1 60003:1 60005:1 10001710:1 10017100:1 10171000:1 #
-0.10898339483623334378314950754429 5132:1 50000:1 60001:1 60003:1 60005:1 10003430:1 10034300:1 10343000:1 #
-0.10898339483623334378314950754429 5291:1 50000:1 60001:1 60003:1 60005:1 10003371:1 10033710:1 10337100:1 #
-0.10898339483623334378314950754429 9861:1 50000:1 60001:1 60003:1 60005:1 10003371:1 10033710:1 10337100:1 #
0.084501246124171300322380773195619 1118:1 50000:1 60001:1 60002:1 60003:1 60004:1 60005:1 10001531:1 10015310:1 10153100:1 #
0.084470246522914307907292652544129 6542:1 50000:1 60001:1 60002:1 60003:1 60004:1 60005:1 10003531:1 10035310:1 10353100:1 #
0.090682954078155506016933884438913 5588:1 50000:1 60001:1 60002:1 60003:1 60004:1 60005:1 10001520:1 10015200:1 10152000:1 #
-0.10898339483623334378314950754429 8013:1 50000:1 60001:1 60003:1 60005:1 10001507:1 10015070:1 10150700:1 #
-0.10898339483623334378314950754429 9347:1 50000:1 60001:1 60003:1 60005:1 10001507:1 10015070:1 10150700:1 #
-0.10898339483623334378314950754429 10687:1 50000:1 60001:1 60002:1 60003:1 60004:1 60005:1 60006:1 60007:1 10003701:1 10037010:1 10370100:1 #
0.059394325624119843898274240245883 1030:1 50000:1 60001:1 60003:1 60005:1 10003831:1 10038310:1 10383100:1 #
0.090756098035829735337642887316179 1196:1 50000:1 60001:1 60003:1 60005:1 10003142:1 10031420:1 10314200:1 #
0.056678635833615452488398744890219 1208:1 50000:1 60001:1 60003:1 60005:1 10005830:1 10058300:1 10583000:1 #
-0.10898339483623334378314950754429 8937:1 50000:1 60001:1 60003:1 60005:1 60007:1 10001911:1 10019110:1 10191100:1 #
-0.10898339483623334378314950754429 10412:1 50000:1 60001:1 60003:1 60005:1 10004620:1 10046200:1 10462000:1 #
-0.10898339483623334378314950754429 11663:1 50000:1 60001:1 60003:1 60005:1 10003091:1 10030910:1 10309100:1 #
0.10869252546130502012911023257402 5166:1 50000:1 60001:1 60003:1 60005:1 10003701:1 10037010:1 10370100:1 #
0.059379886496503886395004201403935 1210:1 50000:1 60001:1 60003:1 60005:1 10003132:1 10031320:1 10313200:1 #
0.10898339483623334378314950754429 1267:1 50000:1 60001:1 60003:1 60005:1 10003580:1 10035800:1 10358000:1 #
-0.10898339483623334378314950754429 8335:1 50000:1 60001:1 60003:1 60004:1 60005:1 10001040:1 10010400:1 10104000:1 #
-0.067913258045212893110331719981332 9400:1 50000:1 60001:1 60003:1 60004:1 60005:1 10003210:1 10032100:1 10321000:1 #
-0.10898339483623334378314950754429 7421:1 50000:1 60001:1 60003:1 60004:1 60005:1 10003640:1 10036400:1 10364000:1 #
0.09436230865697450842510818347364 1289:1 50000:1 60001:1 60003:1 60005:1 60007:1 10001130:1 10011300:1 10113000:1 #
0.09444054958546371780769845827308 1563:1 50000:1 60001:1 60003:1 60005:1 60007:1 10003682:1 10036820:1 10368200:1 #
0.10898339483623334378314950754429 3394:1 50000:1 60001:1 60003:1 60005:1 60007:1 10001581:1 10015810:1 10158100:1 #
-0.10898339483623334378314950754429 12487:1 50000:1 60001:1 60002:1 60003:1 60004:1 60005:1 10003400:1 10034000:1 10340000:1 #
0.060348437663513915252266883726406 3188:1 50000:1 60001:1 60003:1 60005:1 60007:1 10003610:1 10036100:1 10361000:1 #
0.013123968322407095557502465510424 12336:1 50000:1 60001:1 60003:1 60005:1 10003133:1 10031330:1 10313300:1 #
-0.10898339483623334378314950754429 12452:1 50000:1 60001:1 60003:1 60005:1 10003075:1 10030750:1 10307500:1 #
-0.10898339483623334378314950754429 13287:1 50000:1 60001:1 60003:1 60005:1 10005100:1 10051000:1 10510000:1 #
-0.10898339483623334378314950754429 6104:1 50000:1 60001:1 60003:1 60005:1 10003740:1 10037400:1 10374000:1 #
0.10898339483623334378314950754429 5641:1 50000:1 60001:1 60002:1 60003:1 60004:1 60005:1 10003620:1 10036200:1 10362000:1 #
0.094624155511567276111151159057044 4937:1 50000:1 60001:1 60003:1 60004:1 60005:1 10003670:1 10036700:1 10367000:1 #
0.09462001838963092492651441034468 8477:1 50000:1 60001:1 60003:1 60004:1 60005:1 10003560:1 10035600:1 10356000:1 #
-0.089469679748032271415780769530102 5095:1 50000:1 60001:1 60003:1 60005:1 60007:1 60010:1 10003560:1 10035600:1 10356000:1 #
-0.081379043211548054981285815756564 10530:1 50000:1 60001:1 60003:1 60005:1 60007:1 60010:1 10003620:1 10036200:1 10362000:1 #
-0.10898339483623334378314950754429 10127:1 50000:1 60001:1 60003:1 60005:1 10002418:1 10024180:1 10241800:1 #
0.102983985609750167133924492191 1423:1 50000:1 60001:1 60003:1 60005:1 10003110:1 10031100:1 10311000:1 #
0.041506287827140393720259936571892 2398:1 50000:1 60001:1 60003:1 60005:1 10003063:1 10030630:1 10306300:1 #
0.041455732060099351188320326855319 2433:1 50000:1 60001:1 60003:1 60005:1 10003063:1 10030630:1 10306300:1 #
-0.10898339483623334378314950754429 8061:1 50000:1 60001:1 60003:1 60005:1 10003542:1 10035420:1 10354200:1 #
-0.10898339483623334378314950754429 8068:1 50000:1 60001:1 60003:1 60005:1 10003542:1 10035420:1 10354200:1 #
-0.10898339483623334378314950754429 8559:1 50000:1 60001:1 60003:1 60005:1 10003542:1 10035420:1 10354200:1 #
0.026464739134884344290421509526823 2507:1 50000:1 60001:1 60003:1 60005:1 10003660:1 10036600:1 10366000:1 #
0.041582408876911877704252162857301 2580:1 50000:1 60001:1 60003:1 60005:1 10003120:1 10031200:1 10312000:1 #
0.041582408876911891582039970671758 2929:1 50000:1 60001:1 60003:1 60005:1 10003120:1 10031200:1 10312000:1 #
-0.10898339483623334378314950754429 9096:1 50000:1 60001:1 60003:1 60005:1 10003392:1 10033920:1 10339200:1 #
-0.10898339483623334378314950754429 9186:1 50000:1 60001:1 60003:1 60005:1 10003392:1 10033920:1 10339200:1 #
-0.10898339483623334378314950754429 9191:1 50000:1 60001:1 60003:1 60005:1 10003392:1 10033920:1 10339200:1 #
0.074452529177331985832388738799636 3731:1 50000:1 60001:1 60003:1 60005:1 10003042:1 10030420:1 10304200:1 #
0.10272464589824233105463946458258 3763:1 50000:1 60001:1 60003:1 60005:1 10003044:1 10030440:1 10304400:1 #
0.10290181948612311946256170358538 3833:1 50000:1 60001:1 60003:1 60005:1 10003641:1 10036410:1 10364100:1 #
-0.10898339483623334378314950754429 10967:1 50000:1 60001:1 60003:1 60005:1 10005850:1 10058500:1 10585000:1 #
-0.10898339483623334378314950754429 11396:1 50000:1 60001:1 60003:1 60005:1 10005850:1 10058500:1 10585000:1 #
-0.10898339483623334378314950754429 8125:1 50000:1 60001:1 60003:1 60005:1 10001561:1 10015610:1 10156100:1 #
0.10296952744559667580759310112626 3925:1 50000:1 60001:1 60003:1 60005:1 10003041:1 10030410:1 10304100:1 #
0.10272464589824222003233700206692 4107:1 50000:1 60001:1 60003:1 60005:1 10001506:1 10015060:1 10150600:1 #
0.1028345443832609090728524847691 4252:1 50000:1 60001:1 60003:1 60005:1 10001342:1 10013420:1 10134200:1 #
-0.10898339483623334378314950754429 1322:1 50000:1 60001:1 60003:1 60005:1 10002800:1 10028000:1 10280000:1 #
-0.079253137857993080639396055175894 4333:1 50000:1 60001:1 60003:1 60005:1 10001110:1 10011100:1 10111000:1 #
-0.10898339483623334378314950754429 4697:1 50000:1 60001:1 60003:1 60005:1 10002800:1 10028000:1 10280000:1 #
0.1028345443832609090728524847691 4488:1 50000:1 60001:1 60003:1 60005:1 10001680:1 10016800:1 10168000:1 #
0.090493539473453440957761984009267 4770:1 50000:1 60001:1 60003:1 60005:1 10003092:1 10030920:1 10309200:1 #
0.10303155582301076753637403271568 4901:1 50000:1 60001:1 60003:1 60005:1 10003136:1 10031360:1 10313600:1 #
-0.07255875871974572233202849247391 7222:1 50000:1 60001:1 60003:1 60005:1 10001970:1 10019700:1 10197000:1 #
-0.072558758719747498688867892724375 8082:1 50000:1 60001:1 60003:1 60005:1 10001970:1 10019700:1 10197000:1 #
-0.072558758719746818677265309815994 8175:1 50000:1 60001:1 60003:1 60005:1 10001970:1 10019700:1 10197000:1 #
0.10302380300106521449077234819924 5025:1 50000:1 60001:1 60003:1 60005:1 10003522:1 10035220:1 10352200:1 #
0.059063960017729733031899286288535 5070:1 50000:1 60001:1 60003:1 60005:1 10003135:1 10031350:1 10313500:1 #
0.10287158905630972016709279159841 5159:1 50000:1 60001:1 60003:1 60005:1 10003521:1 10035210:1 10352100:1 #
-0.10898339483623334378314950754429 7813:1 50000:1 60001:1 60003:1 60005:1 10003540:1 10035400:1 10354000:1 #
-0.10898339483623334378314950754429 9612:1 50000:1 60001:1 60003:1 60005:1 10001120:1 10011200:1 10112000:1 #
-0.10898339483623334378314950754429 9750:1 50000:1 60001:1 60003:1 60005:1 10003540:1 10035400:1 10354000:1 #
0.059251529657854969113106591294127 5339:1 50000:1 60001:1 60003:1 60005:1 10003681:1 10036810:1 10368100:1 #
0.10296901941985539541413174902118 6815:1 50000:1 60001:1 60003:1 60005:1 10003350:1 10033500:1 10335000:1 #
0.10283464605341657849280068148801 7314:1 50000:1 60001:1 60003:1 60005:1 10003150:1 10031500:1 10315000:1 #
0.05858515300065161857112627785682 9270:1 50000:1 60001:1 60003:1 60005:1 10001540:1 10015400:1 10154000:1 #
-0.10898339483623334378314950754429 9831:1 50000:1 60001:1 60003:1 60005:1 10005750:1 10057500:1 10575000:1 #
-0.10898339483623334378314950754429 9881:1 50000:1 60001:1 60003:1 60005:1 10005750:1 10057500:1 10575000:1 #
-0.10898339483623334378314950754429 9968:1 50000:1 60001:1 60003:1 60005:1 10005750:1 10057500:1 10575000:1 #
0.10271552729193514363892347773799 7725:1 50000:1 60001:1 60003:1 60005:1 10003340:1 10033400:1 10334000:1 #
0.10680806512070101232936281121511 8194:1 50000:1 60001:1 60003:1 60005:1 10003700:1 10037000:1 10370000:1 #
0.059353752336421289337309303846268 8352:1 50000:1 60001:1 60003:1 60005:1 10003511:1 10035110:1 10351100:1 #
-0.10898339483623334378314950754429 8235:1 50000:1 60001:1 60003:1 60004:1 60005:1 10003100:1 10031000:1 10310000:1 #
-0.10898339483623334378314950754429 8432:1 50000:1 60001:1 60003:1 60004:1 60005:1 10005290:1 10052900:1 10529000:1 #
-0.10898339483623334378314950754429 12577:1 50000:1 60001:1 60002:1 60003:1 60004:1 60005:1 10004630:1 10046300:1 10463000:1 #
0.10281655234964703904410043833195 8791:1 50000:1 60001:1 60003:1 60005:1 10001530:1 10015300:1 10153000:1 #
0.10295932130950613547781813394977 9159:1 50000:1 60001:1 60003:1 60005:1 10001526:1 10015260:1 10152600:1 #
-0.10898339483623334378314950754429 7789:1 50000:1 60001:1 60003:1 60005:1 60006:1 60007:1 10003042:1 10030420:1 10304200:1 #
-0.10320690400834246769345980965227 8251:1 50000:1 60001:1 60003:1 60005:1 60010:1 10001505:1 10015050:1 10150500:1 #
-0.10898339483623334378314950754429 11718:1 50000:1 60001:1 60003:1 60005:1 10003091:1 10030910:1 10309100:1 #
0.094620018389628982036221316320734 8877:1 50000:1 60001:1 60003:1 60004:1 60005:1 10003560:1 10035600:1 10356000:1 #
0.069505060025821616132013502920017 4886:1 50000:1 60001:1 60003:1 60004:1 60005:1 10001230:1 10012300:1 10123000:1 #
0.081302746178394710852010973667348 9208:1 50000:1 60001:1 60003:1 60004:1 60005:1 10005810:1 10058100:1 10581000:1 #
-0.10898339483623334378314950754429 10980:1 50000:1 60001:1 60003:1 60004:1 60005:1 60006:1 10005810:1 10058100:1 10581000:1 #
-0.097299269568857593704080954921665 11140:1 50000:1 60001:1 60003:1 60005:1 10003800:1 10038000:1 10380000:1 #
-0.097369588721000890907397717910499 11262:1 50000:1 60001:1 60003:1 60005:1 10003800:1 10038000:1 10380000:1 #
0.094515043030854173355947978052427 5604:1 50000:1 60001:1 60003:1 60005:1 60007:1 10001501:1 10015010:1 10150100:1 #
0.073494795448627386891260471202258 4584:1 50000:1 60001:1 60003:1 60005:1 10003042:1 10030420:1 10304200:1 #
-0.10898339483623334378314950754429 2288:1 50000:1 60001:1 60003:1 60005:1 60007:1 10003068:1 10030680:1 10306800:1 #
-0.10898339483623334378314950754429 2499:1 50000:1 60001:1 60003:1 60005:1 60007:1 10003068:1 10030680:1 10306800:1 #
-0.10898339483623334378314950754429 3357:1 50000:1 60001:1 60002:1 60003:1 60004:1 60005:1 60006:1 60007:1 60008:1 10003092:1 10030920:1 10309200:1 #
0.10290429844910393974988238596779 9500:1 50000:1 60001:1 60003:1 60005:1 10003161:1 10031610:1 10316100:1 #
0.059413555436753189009646547447119 9673:1 50000:1 60001:1 60003:1 60005:1 10003860:1 10038600:1 10386000:1 #
0.059354389265630143335261692527638 10043:1 50000:1 60001:1 60003:1 60005:1 10003123:1 10031230:1 10312300:1 #
-0.10898339483623334378314950754429 9771:1 50000:1 60001:1 60003:1 60005:1 10002452:1 10024520:1 10245200:1 #
-0.10898339483623334378314950754429 7478:1 50000:1 60001:1 60003:1 60005:1 10003640:1 10036400:1 10364000:1 #
-0.10678362729544771392298230239248 7532:1 50000:1 60001:1 60003:1 60005:1 10003210:1 10032100:1 10321000:1 #
0.056730276144385680114901049364562 8297:1 50000:1 60001:1 60003:1 60005:1 60007:1 10003092:1 10030920:1 10309200:1 #
0.047658631274819812650989092617237 8237:1 50000:1 60001:1 60003:1 60004:1 60005:1 60007:1 10005810:1 10058100:1 10581000:1 #
0.033383441272646280362224047166819 12754:1 50000:1 60001:1 60003:1 60004:1 60005:1 60007:1 10001112:1 10011120:1 10111200:1 #
-0.10898339483623334378314950754429 10337:1 50000:1 60001:1 60003:1 60005:1 10002418:1 10024180:1 10241800:1 #
-0.079253137857993039006032631732523 4702:1 50000:1 60001:1 60003:1 60005:1 10001110:1 10011100:1 10111000:1 #
-0.07925313785799309451718386299035 4804:1 50000:1 60001:1 60003:1 60005:1 10001110:1 10011100:1 10111000:1 #
0.084782163898407217339503461062122 10314:1 50000:1 60001:1 60003:1 60005:1 10003051:1 10030510:1 10305100:1 #
0.10289023031195337898324737579969 11488:1 50000:1 60001:1 60003:1 60005:1 10001510:1 10015100:1 10151000:1 #
0.10299685315989935696645574125796 11708:1 50000:1 60001:1 60003:1 60005:1 10003844:1 10038440:1 10384400:1 #
-0.10898339483623334378314950754429 12817:1 50000:1 60001:1 60003:1 60005:1 10001120:1 10011200:1 10112000:1 #
-0.10898339483623334378314950754429 12053:1 50000:1 60001:1 60003:1 60005:1 10003091:1 10030910:1 10309100:1 #
-0.080945971772484623385501834036404 4925:1 50000:1 60001:1 60003:1 60005:1 60010:1 10001230:1 10012300:1 10123000:1 #
0.10623122180844567219448748573996 13125:1 50000:1 60001:1 60003:1 60005:1 10003613:1 10036130:1 10361300:1 #
0.10623122180844550566103379196647 13147:1 50000:1 60001:1 60003:1 60005:1 10003613:1 10036130:1 10361300:1 #
-0.10898339483623334378314950754429 13051:1 50000:1 60001:1 60002:1 60003:1 60004:1 60005:1 60006:1 10003613:1 10036130:1 10361300:1 #
-0.10898339483623334378314950754429 6698:1 50000:1 60001:1 60003:1 60004:1 60005:1 60006:1 10003710:1 10037100:1 10371000:1 #
-0.10898339483623334378314950754429 11752:1 50000:1 60001:1 60003:1 60004:1 60005:1 60006:1 10003761:1 10037610:1 10376100:1 #
0.10696091884505412594741358134343 13388:1 50000:1 60001:1 60003:1 60005:1 10003083:1 10030830:1 10308300:1 #
0.088664669442650265174243884302996 8634:1 50000:1 60001:1 60003:1 60005:1 10003770:1 10037700:1 10377000:1 #
0.088731094379306152397646201279713 10918:1 50000:1 60001:1 60003:1 60005:1 10003770:1 10037700:1 10377000:1 #
-0.069035457774452232970752163510042 10973:1 50000:1 60001:1 60003:1 60005:1 60010:1 10005810:1 10058100:1 10581000:1 #
-0.055579020107120097327069174752978 7483:1 50000:1 60001:1 60003:1 60005:1 60010:1 10003670:1 10036700:1 10367000:1 #
-0.055650186852693087069532396071736 5207:1 50000:1 60001:1 60003:1 60005:1 60010:1 10003560:1 10035600:1 10356000:1 #
0.10898339483623334378314950754429 2785:1 50000:1 60001:1 60003:1 60004:1 60005:1 10003761:1 10037610:1 10376100:1 #
0.041077068580427651689479517926884 10495:1 50000:1 60001:1 60003:1 60004:1 60005:1 10003520:1 10035200:1 10352000:1 #
-0.10898339483623334378314950754429 2921:1 50000:1 60001:1 60003:1 60004:1 60005:1 60006:1 10003580:1 10035800:1 10358000:1 #
-0.10898339483623334378314950754429 12008:1 50000:1 60001:1 60003:1 60004:1 60005:1 60006:1 60009:1 10003761:1 10037610:1 10376100:1 #
-0.10678362729544681186677479445279 9432:1 50000:1 60001:1 60003:1 60005:1 10003210:1 10032100:1 10321000:1 #
0.10898339483623334378314950754429 6680:1 50000:1 60001:1 60003:1 60005:1 10003710:1 10037100:1 10371000:1 #
-0.014987941620566181191720467325013 3557:1 50000:1 60001:1 60003:1 60005:1 60007:1 60010:1 10003710:1 10037100:1 10371000:1 #
-0.10674212849219294474423236351868 1850:1 50000:1 60001:1 60003:1 60005:1 60007:1 60008:1 60010:1 10003630:1 10036300:1 10363000:1 #
0.094392033339024516980231283014291 12193:1 50000:1 60001:1 60003:1 60005:1 10003761:1 10037610:1 10376100:1 #
0.094392033339025002702804556520277 13047:1 50000:1 60001:1 60003:1 60005:1 10003761:1 10037610:1 10376100:1 #
-0.10898339483623334378314950754429 8530:1 50000:1 60001:1 60003:1 60004:1 60005:1 10002452:1 10024520:1 10245200:1 #
-0.10898339483623334378314950754429 1791:1 50000:1 60001:1 60002:1 60003:1 60004:1 60005:1 60006:1 10005830:1 10058300:1 10583000:1 #
-0.10898339483623334378314950754429 11276:1 50000:1 60001:1 60002:1 60003:1 60004:1 60005:1 60006:1 10003320:1 10033200:1 10332000:1 #
0.077637642785176444459871447634214 1107:1 50000:1 60001:1 60003:1 60005:1 10003630:1 10036300:1 10363000:1 #
0.077637642785175806081632288169203 1430:1 50000:1 60001:1 60003:1 60005:1 10003630:1 10036300:1 10363000:1 #
0.07763764278517629180420556167519 1808:1 50000:1 60001:1 60003:1 60005:1 10003630:1 10036300:1 10363000:1 #
-0.066681210421179262781699037532235 849:1 50000:1 60001:1 60003:1 60005:1 60007:1 60010:1 10003630:1 10036300:1 10363000:1 #
-0.066681210421178541136733031180484 2384:1 50000:1 60001:1 60003:1 60005:1 60007:1 60010:1 10003630:1 10036300:1 10363000:1 #
-0.10898339483623334378314950754429 8703:1 50000:1 60001:1 60003:1 60005:1 10003542:1 10035420:1 10354200:1 #
-0.0277671310142021919575849864259 3126:1 50000:1 60001:1 60003:1 60005:1 60010:1 10003020:1 10030200:1 10302000:1 #
0.030839538913478580645088911182938 4123:1 50000:1 60001:1 60003:1 60004:1 60005:1 10003312:1 10033120:1 10331200:1 #
0.047764142494998176879938966976624 4338:1 50000:1 60001:1 60003:1 60004:1 60005:1 10003850:1 10038500:1 10385000:1 #
0.030759452646877034204253575921939 1987:1 50000:1 60001:1 60003:1 60004:1 60005:1 10003730:1 10037300:1 10373000:1 #
-0.057991561826764674580925174041113 5953:1 50000:1 60001:1 60002:1 60003:1 60004:1 60005:1 60006:1 10001581:1 10015810:1 10158100:1 #
0.077796417392803823842584165504377 2775:1 50000:1 60001:1 60003:1 60005:1 10003630:1 10036300:1 10363000:1 #
-0.1018696901189694442591004985843 6517:1 50000:1 60001:1 60003:1 60005:1 60010:1 10003850:1 10038500:1 10385000:1 #
-0.071761295652245038478866945297341 10082:1 50000:1 60001:1 60003:1 60005:1 10001970:1 10019700:1 10197000:1 #
-0.071761295652244386222839978017873 13457:1 50000:1 60001:1 60003:1 60005:1 10001970:1 10019700:1 10197000:1 #
0.077637642785176014248449405386054 4151:1 50000:1 60001:1 60003:1 60005:1 10003630:1 10036300:1 10363000:1 #
0.0085858411118957585900224316333151 11793:1 50000:1 60001:1 60003:1 60005:1 10001553:1 10015530:1 10155300:1 #
-0.065145396440345046396025452395406 2742:1 50000:1 60001:1 60002:1 60003:1 60004:1 60005:1 60006:1 60007:1 60008:1 10003830:1 10038300:1 10383000:1 #
-0.10898339483623334378314950754429 11428:1 50000:1 60001:1 60002:1 60003:1 60004:1 60005:1 60006:1 10003320:1 10033200:1 10332000:1 #
0.096087336201778381084004365675355 11532:1 50000:1 60001:1 60003:1 60005:1 10003320:1 10033200:1 10332000:1 #
0.096380220934319818515412237047713 11560:1 50000:1 60001:1 60003:1 60005:1 10003320:1 10033200:1 10332000:1 #
0.055828945739996832520191105686536 3584:1 50000:1 60001:1 60003:1 60005:1 10005830:1 10058300:1 10583000:1 #
-0.096197772543398132882863649228966 11514:1 50000:1 60001:1 60003:1 60005:1 10003800:1 10038000:1 10380000:1 #
-0.10592438273536544657282831849443 10680:1 50000:1 60001:1 60003:1 60005:1 10003210:1 10032100:1 10321000:1 #
-0.078289159892493215275877105341351 10874:1 50000:1 60001:1 60003:1 60005:1 10001110:1 10011100:1 10111000:1 #
0.077637642785174765247546702084946 10550:1 50000:1 60001:1 60003:1 60005:1 10003630:1 10036300:1 10363000:1 #
-0.10898339483623334378314950754429 12765:1 50000:1 60001:1 60003:1 60004:1 60005:1 60006:1 60009:1 10003810:1 10038100:1 10381000:1 #
-0.037364747706672106486447404449791 4964:1 50000:1 60001:1 60002:1 60003:1 60004:1 60005:1 60006:1 10003140:1 10031400:1 10314000:1 #
0.055141724284367879538315548870742 6100:1 50000:1 60001:1 60003:1 60005:1 10003670:1 10036700:1 10367000:1 #
0.055723495357797643567909773310021 10870:1 50000:1 60001:1 60003:1 60005:1 10005830:1 10058300:1 10583000:1 #
0.055704305476131955876528678572868 10893:1 50000:1 60001:1 60003:1 60005:1 10005830:1 10058300:1 10583000:1 #
0.063553800008548058664281654728256 234:1 50000:1 60001:1 60003:1 60004:1 60005:1 10003065:1 10030650:1 10306500:1 #
0.063553800008547767230737690624665 327:1 50000:1 60001:1 60003:1 60004:1 60005:1 10003065:1 10030650:1 10306500:1 #
0.063510734231246118719482751657779 646:1 50000:1 60001:1 60003:1 60004:1 60005:1 10003065:1 10030650:1 10306500:1 #
0.077796417392803754453645126432093 11303:1 50000:1 60001:1 60003:1 60005:1 10003630:1 10036300:1 10363000:1 #
0.047746527072958414028569507081556 10699:1 50000:1 60001:1 60003:1 60005:1 10003810:1 10038100:1 10381000:1 #
-0.032290489035162316111549074548748 882:1 50000:1 60001:1 60003:1 60005:1 60010:1 10003630:1 10036300:1 10363000:1 #
-0.032335650558466266790702547950787 1447:1 50000:1 60001:1 60003:1 60005:1 60010:1 10003630:1 10036300:1 10363000:1 #
-0.032335650558465808823704890073714 1587:1 50000:1 60001:1 60003:1 60005:1 60010:1 10003630:1 10036300:1 10363000:1 #
0.063553800008547253752588801489765 692:1 50000:1 60001:1 60003:1 60004:1 60005:1 10003065:1 10030650:1 10306500:1 #
0.063553800008547697841798651552381 12723:1 50000:1 60001:1 60003:1 60004:1 60005:1 10003065:1 10030650:1 10306500:1 #
0.10898339483623334378314950754429 2227:1 50000:1 60001:1 60003:1 60004:1 60005:1 10003360:1 10033600:1 10336000:1 #
-0.085291873599406667350031341356953 12649:1 50000:1 60001:1 60003:1 60005:1 60010:1 10003065:1 10030650:1 10306500:1 #
-0.085291873599406223260821491294337 12795:1 50000:1 60001:1 60003:1 60005:1 60010:1 10003065:1 10030650:1 10306500:1 #
-0.032280586638321978609766915724322 1624:1 50000:1 60001:1 60003:1 60005:1 60010:1 10003630:1 10036300:1 10363000:1 #
0.008565854551570934241611077197831 5577:1 50000:1 60001:1 60003:1 60005:1 10001553:1 10015530:1 10155300:1 #
0.055704305476130817897928437787414 12736:1 50000:1 60001:1 60003:1 60005:1 10005830:1 10058300:1 10583000:1 #
0.0805507445902639840351611155711 1998:1 50000:1 60001:1 60003:1 60005:1 10003530:1 10035300:1 10353000:1 #
0.078106374677787471227929927408695 4597:1 50000:1 60001:1 60003:1 60005:1 10003067:1 10030670:1 10306700:1 #
-0.039740481306758314306026846907116 6991:1 50000:1 60001:1 60003:1 60005:1 60006:1 10003151:1 10031510:1 10315100:1 #
-0.039544812480692984046903859507438 8804:1 50000:1 60001:1 60003:1 60005:1 60006:1 10003374:1 10033740:1 10337400:1 #
-0.039544812480692935474646532156839 12390:1 50000:1 60001:1 60003:1 60005:1 60006:1 10001404:1 10014040:1 10140400:1 #
0.047584908560784809627985936231198 12634:1 50000:1 60001:1 60003:1 60005:1 10003810:1 10038100:1 10381000:1 #
0.047584908560784157371958968951731 12672:1 50000:1 60001:1 60003:1 60005:1 10003810:1 10038100:1 10381000:1 #
0.059073436415069097149554977477237 9870:1 50000:1 60001:1 60003:1 60005:1 10001540:1 10015400:1 10154000:1 #
0.077981305949174337110996191313461 6476:1 50000:1 60001:1 60003:1 60005:1 10003067:1 10030670:1 10306700:1 #
0.078106374677787485105717735223152 6565:1 50000:1 60001:1 60003:1 60005:1 10003067:1 10030670:1 10306700:1 #
-0.065850462072905652233245632487524 8879:1 50000:1 60001:1 60003:1 60005:1 60007:1 60010:1 10003067:1 10030670:1 10306700:1 #
0.08055074459026406730188796245784 4708:1 50000:1 60001:1 60003:1 60005:1 10003530:1 10035300:1 10353000:1 #
-0.0782891598924945475435066555292 11190:1 50000:1 60001:1 60003:1 60005:1 10001110:1 10011100:1 10111000:1 #
-0.038901298707704541623986216336561 12609:1 50000:1 60001:1 60003:1 60005:1 60006:1 10001552:1 10015520:1 10155200:1 #
-0.039740481306758279611557327370974 13271:1 50000:1 60001:1 60003:1 60005:1 60006:1 10001600:1 10016000:1 10160000:1 #
0.043875627611085814272495753129988 1616:1 50000:1 60001:1 60003:1 60005:1 60007:1 10003630:1 10036300:1 10363000:1 #
0.043875627611084828949561398303558 4142:1 50000:1 60001:1 60003:1 60005:1 60007:1 10003630:1 10036300:1 10363000:1 #
0.06065718333906371800834378404943 381:1 50000:1 60001:1 60003:1 60005:1 60007:1 10003761:1 10037610:1 10376100:1 #
-0.049706712797224592015332689243223 2167:1 50000:1 60001:1 60003:1 60005:1 60007:1 60010:1 10003610:1 10036100:1 10361000:1 #
-0.045027428571002822699220757840521 6504:1 50000:1 60001:1 60003:1 60005:1 60007:1 60010:1 10003760:1 10037600:1 10376000:1 #
-0.059811573625750652505317361828929 7055:1 50000:1 60001:1 60003:1 60005:1 60007:1 60010:1 10003051:1 10030510:1 10305100:1 #
-0.038322115466092654401109030004591 11921:1 50000:1 60001:1 60003:1 60004:1 60005:1 60006:1 60007:1 10003430:1 10034300:1 10343000:1 #
0.083952938634148877028451352089178 12945:1 50000:1 60001:1 60003:1 60005:1 10003051:1 10030510:1 10305100:1 #
0.099096146129278347980395835747913 11963:1 50000:1 60001:1 60003:1 60005:1 10003760:1 10037600:1 10376000:1 #
-0.032280586638323317816290369819399 1679:1 50000:1 60001:1 60003:1 60005:1 60010:1 10003630:1 10036300:1 10363000:1 #
-0.032290489035161379360872047072917 1688:1 50000:1 60001:1 60003:1 60005:1 60010:1 10003630:1 10036300:1 10363000:1 #
-0.032290489035162718567395501167994 1706:1 50000:1 60001:1 60003:1 60005:1 60010:1 10003630:1 10036300:1 10363000:1 #
-0.03233565055846492758417909385571 1722:1 50000:1 60001:1 60003:1 60005:1 60010:1 10003630:1 10036300:1 10363000:1 #
-0.032378411603479401170702089984843 1863:1 50000:1 60001:1 60003:1 60005:1 60010:1 10003630:1 10036300:1 10363000:1 #
0.0066959280349093595538501055841607 2048:1 50000:1 60001:1 60003:1 60005:1 10003061:1 10030610:1 10306100:1 #
0.0066959280349093968504048390855132 4586:1 50000:1 60001:1 60003:1 60005:1 10003061:1 10030610:1 10306100:1 #
0.0068775419028302038626510039875939 10032:1 50000:1 60001:1 60003:1 60005:1 10003061:1 10030610:1 10306100:1 #
0.0067109381601594530336596378106151 7985:1 50000:1 60001:1 60003:1 60005:1 10003570:1 10035700:1 10357000:1 #
0.0067109381601594478294892098801938 8745:1 50000:1 60001:1 60003:1 60005:1 10003570:1 10035700:1 10357000:1 #
0.0068042498362119781946111274351097 8750:1 50000:1 60001:1 60003:1 60005:1 10003570:1 10035700:1 10357000:1 #
0.064475588035150424581765093989816 6068:1 50000:1 60001:1 60003:1 60005:1 10001523:1 10015230:1 10152300:1 #
0.057115423091757419604697076920274 4386:1 50000:1 60001:1 60003:1 60005:1 10003084:1 10030840:1 10308400:1 #
0.020999207907917566418021237950597 5800:1 50000:1 60001:1 60003:1 60005:1 10001551:1 10015510:1 10155100:1 #
0.0088924909579671928411270798164878 341:1 50000:1 60001:1 60003:1 60005:1 10003850:1 10038500:1 10385000:1 #
0.0088924909579672570258956909583503 12846:1 50000:1 60001:1 60003:1 60005:1 10003850:1 10038500:1 10385000:1 #
0.0088924909579672414133844071670865 13251:1 50000:1 60001:1 60003:1 60005:1 10003850:1 10038500:1 10385000:1 #
-0.052649657272423031062480447417329 3922:1 50000:1 60001:1 60003:1 60005:1 60010:1 10003084:1 10030840:1 10308400:1 #
0.024665837708783475840101928611148 10334:1 50000:1 60001:1 60003:1 60005:1 10003065:1 10030650:1 10306500:1 #
0.057115423091757371032439749569676 7081:1 50000:1 60001:1 60003:1 60005:1 10003084:1 10030840:1 10308400:1 #
-0.052649657272423391884963450593204 3214:1 50000:1 60001:1 60003:1 60005:1 60010:1 10003084:1 10030840:1 10308400:1 #
0.020985551697039916962950201195781 10665:1 50000:1 60001:1 60003:1 60005:1 10001584:1 10015840:1 10158400:1 #
0.012556526639668419073614380465642 11779:1 50000:1 60001:1 60003:1 60005:1 10003152:1 10031520:1 10315200:1 #
0.049476304269503716681821714473699 11797:1 50000:1 60001:1 60003:1 60005:1 10003134:1 10031340:1 10313400:1 #
-0.045696037765865490931638248639501 12468:1 50000:1 60001:1 60003:1 60005:1 60010:1 10001523:1 10015230:1 10152300:1 #
-0.046864513425882242669828769976448 11970:1 50000:1 60001:1 60003:1 60005:1 60010:1 10003620:1 10036200:1 10362000:1 #
-0.046864513425881597352695706604209 12046:1 50000:1 60001:1 60003:1 60005:1 60010:1 10003620:1 10036200:1 10362000:1 #
-0.01104977118384034735776300095722 11835:1 50000:1 60001:1 60003:1 60005:1 60010:1 10003760:1 10037600:1 10376000:1 #
0.051482088443374915409656011888728 5610:1 50000:1 60001:1 60003:1 60005:1 10003450:1 10034500:1 10345000:1 #
0.058184935897258580062008093136683 12631:1 50000:1 60001:1 60003:1 60005:1 10003831:1 10038310:1 10383100:1 #
0.0520898349229503634938431844148 13144:1 50000:1 60001:1 60003:1 60005:1 10003450:1 10034500:1 10345000:1 #
0.063405964686047575074034909903276 13039:1 50000:1 60001:1 60003:1 60005:1 10003620:1 10036200:1 10362000:1 #
0.025490708248530946633536586887203 4444:1 50000:1 60001:1 60003:1 60005:1 10003660:1 10036600:1 10366000:1 #
0.0254907082485310680641799052637 4970:1 50000:1 60001:1 60003:1 60005:1 10003660:1 10036600:1 10366000:1 #
0.025490708248530370705342562587248 5929:1 50000:1 60001:1 60003:1 60005:1 10003660:1 10036600:1 10366000:1 #
-0.016710362257416490339156922573238 2712:1 50000:1 60001:1 60003:1 60004:1 60005:1 60010:1 10003670:1 10036700:1 10367000:1 #
0.02919792177481825637408441309617 7497:1 50000:1 60001:1 60003:1 60005:1 10003050:1 10030500:1 10305000:1 #
0.051066343604330106942246203516333 4195:1 50000:1 60001:1 60003:1 60004:1 60005:1 10003133:1 10031330:1 10313300:1 #
0.051260481604231612762223591062138 6655:1 50000:1 60001:1 60003:1 60004:1 60005:1 10003133:1 10031330:1 10313300:1 #
0.025490708248530800916764604835407 10833:1 50000:1 60001:1 60003:1 60005:1 10003660:1 10036600:1 10366000:1 #
0.024665837708782993586975607058775 12219:1 50000:1 60001:1 60003:1 60005:1 10003065:1 10030650:1 10306500:1 #
0.024665837708783319714989090698509 12738:1 50000:1 60001:1 60003:1 60005:1 10003065:1 10030650:1 10306500:1 #
-0.011762973536941605245953468283915 11879:1 50000:1 60001:1 60003:1 60005:1 60010:1 10003760:1 10037600:1 10376000:1 #
0.058188182951836697753833504975773 12512:1 50000:1 60001:1 60003:1 60005:1 10003132:1 10031320:1 10313200:1 #
0.03923096799429824643734576739007 5729:1 50000:1 60001:1 60003:1 60005:1 10001580:1 10015800:1 10158000:1 #
0.081150344184572550942924351602414 6106:1 50000:1 60001:1 60003:1 60005:1 10003852:1 10038520:1 10385200:1 #
0.025450343543267334167623516805179 12742:1 50000:1 60001:1 60003:1 60005:1 10003065:1 10030650:1 10306500:1 #
0.024665837708782979709187799244319 12775:1 50000:1 60001:1 60003:1 60005:1 10003065:1 10030650:1 10306500:1 #
0.024886194296256481522933157179978 12804:1 50000:1 60001:1 60003:1 60005:1 10003065:1 10030650:1 10306500:1 #
0.058360388426947927553722905713585 13344:1 50000:1 60001:1 60003:1 60005:1 10003681:1 10036810:1 10368100:1 #
0.058425062000762487124383426362328 13371:1 50000:1 60001:1 60003:1 60005:1 10003135:1 10031350:1 10313500:1 #
0.089508021255384290215673104285088 8554:1 50000:1 60001:1 60003:1 60005:1 10003092:1 10030920:1 10309200:1 #
